{"a1_0.weight": [[-0.014445438981056213, -0.09245587885379791, -0.026118099689483643, -0.057955384254455566, -0.05426469072699547, -0.03728678077459335, 0.04710214585065842, -0.044083502143621445, 0.07915235310792923, 0.06848562508821487, 0.04141109436750412, 0.05942807346582413, 0.0961100235581398, -0.08082032203674316, -0.030410371720790863, -0.9017167091369629, 0.22579734027385712, -1.0995001792907715, -0.02255690097808838, 0.6285848021507263, -0.5851864218711853, -0.7226648926734924, -1.1630198955535889, 0.41998764872550964, -0.24675901234149933, 0.8977891206741333, -0.794956386089325, -1.1620932817459106, 0.34871959686279297, 0.03741706162691116, 0.915091872215271, -0.005231693387031555, 0.6749330163002014, 0.8185268044471741, -1.072852611541748, 0.17922677099704742, 0.7424135804176331, 1.3211567401885986, 1.3269357681274414, -0.9263006448745728, 0.47904258966445923, -0.035324230790138245, 1.0098158121109009, -0.296955943107605, 0.6211782693862915, -1.178957223892212, -0.1137152686715126, 0.21445047855377197, 0.5242109298706055, 0.5646675229072571, 0.2914790213108063, -0.6040966510772705, -0.6274477243423462, 0.4862387478351593, 0.0947735384106636, -0.26523828506469727, -0.7707532644271851, 0.3329068422317505, -0.33035188913345337, -0.7637186646461487, 0.3789799213409424, 0.12652750313282013, -1.0119338035583496, 0.35476645827293396, -0.11616439372301102, 0.1165192648768425, -1.8248714208602905, 0.20080780982971191, -0.8099003434181213, -0.5735737085342407, 1.0212223529815674, -0.6434692740440369, 0.5490389466285706, 0.7356985211372375, 0.07105617225170135, -0.7867344617843628, 1.0844626426696777, 0.7632001042366028, -0.4034431576728821, -0.08967258781194687, 0.9748944640159607, -0.16506531834602356, 0.9027330279350281, -0.22939428687095642, -0.40367811918258667, 0.12322540581226349, 0.24527238309383392, 0.7320986390113831, -0.1577531397342682, 0.28527048230171204, 0.8945790529251099, -0.4742361903190613, 0.1890040934085846, -1.4332219362258911, -0.294839471578598, 1.4176164865493774, 0.01381254568696022, -0.13566507399082184, 0.36114874482154846, 0.4827740490436554]], "a1_0.bias": [0.6491195559501648], "a1_1.weight": [[-1.4915516376495361, -1.0746324062347412, 0.6023561358451843, -0.503527045249939, 0.7768675088882446, -0.05760125815868378, 0.3648662567138672, 0.7549552917480469, -0.025921925902366638, 0.004527941346168518, -0.06462734937667847, 0.8395917415618896, -0.42911970615386963, -0.39192572236061096, -0.5523342490196228, 1.2679193019866943, -0.05755431577563286, -0.12907934188842773, 0.004699036478996277, -0.0759783387184143, -0.3918198049068451, 0.8597949147224426, -0.46872204542160034, -0.44880276918411255, 0.6967349052429199, 0.3136358857154846, 0.8280044794082642, -0.7998125553131104, -0.038313161581754684, 0.0455208495259285, 1.0384351015090942, 1.2435057163238525, 0.2466922104358673, 0.352868914604187, 0.2510400414466858, 0.2637963593006134, 0.7937209010124207, -0.48272648453712463, 0.019511893391609192, 0.08913242071866989, -1.0359207391738892, -0.3822464346885681, -0.256248414516449, -0.07582762092351913, -0.7710058093070984, 0.031491585075855255, 1.661718726158142, -0.5001665949821472, 0.07364977151155472, 0.04858265072107315, 0.4789940118789673, 0.0033380307722836733, 0.07293727993965149, 0.3415584862232208, -0.6937031149864197, -0.02063571661710739, -0.5890491604804993, 0.17279590666294098, -0.0011174656683579087, 0.0734848752617836, -0.5298059582710266, -0.25896158814430237, -0.19323913753032684, -0.16012078523635864, -0.8657363057136536, -0.35092198848724365, -0.3894428312778473, 1.0315629243850708, 0.25167223811149597, 0.07028449326753616, -0.7774448394775391, -0.13475196063518524, 0.30591896176338196, 0.5142684578895569, 0.4148155450820923, -0.33427566289901733, 0.541913628578186, 0.3935861587524414, 0.019662095233798027, 0.031930871307849884, 0.04037201777100563, 0.036813218146562576, -0.06463981419801712, 0.736561119556427, -0.8743104934692383, -0.6101909279823303, -0.34495851397514343, 0.6662740707397461, 0.04494953528046608, 0.014801084995269775, 0.5463303923606873, 0.6473160982131958, 1.1557965278625488, -0.4990059733390808, -0.22145193815231323, -0.7270264625549316, -0.2402944415807724, 0.5262385606765747, 0.2675667703151703, 0.07476266473531723]], "a1_1.bias": [1.239959955215454], "a1_2.weight": [[0.016733165830373764, -0.07541311532258987, -1.367707371711731, -0.9422716498374939, -1.0315241813659668, -0.4196440279483795, 0.4569328725337982, -0.06604666262865067, 0.2891284227371216, -0.7384029626846313, -0.04316633939743042, -0.2392932027578354, 0.5110435485839844, -1.0228465795516968, 0.3945178687572479, 1.0846292972564697, 0.9735817909240723, 0.8712575435638428, 0.7156394124031067, 0.1713119000196457, -0.04436727985739708, 0.2249334305524826, 0.5464698672294617, -0.1280864179134369, -0.14766092598438263, 1.1299059391021729, -0.9896184802055359, -1.978693962097168, 0.011907784268260002, 0.9293814897537231, -0.07268978655338287, 1.1535601615905762, -1.2826226949691772, 0.8057029843330383, -0.44984951615333557, 0.5194909572601318, -0.6107724905014038, -0.6478998064994812, 0.11750862002372742, -0.0856701135635376, -0.07612928003072739, 0.41314905881881714, 0.7695512771606445, -0.4025205075740814, -0.8841948509216309, -0.7776355743408203, 0.4691823720932007, 1.2214088439941406, 1.0547431707382202, -0.20872072875499725, 0.03541596978902817, -0.4010128974914551, -0.15328910946846008, -0.7628411054611206, 0.6050335168838501, 0.056452732533216476, 1.3622958660125732, 1.0275177955627441, -0.4491497278213501, 0.3263322710990906, 0.036910586059093475, -0.06347157061100006, 0.6043412089347839, -1.2311968803405762, 1.1517637968063354, -0.06722179055213928, -1.2347489595413208, -0.40842923521995544, -0.4053444266319275, -0.7180492281913757, -0.04240546375513077, 0.030644677579402924, -1.086500883102417, 1.0884287357330322, -0.07441467046737671, -1.1751564741134644, 0.21745100617408752, -0.57097989320755, -0.4199337959289551, -1.0550527572631836, -0.0022393018007278442, 0.09722859412431717, 0.6321955919265747, -0.0112583814188838, 0.4504927396774292, -1.0736010074615479, -0.27912235260009766, -0.06604471057653427, -0.25109386444091797, -0.4149013161659241, 0.032070375978946686, -0.01658729463815689, -0.568207323551178, -0.44142335653305054, 0.3702445924282074, 0.41248369216918945, 0.34759700298309326, -0.05246318504214287, 1.1035717725753784, -0.19785426557064056]], "a1_2.bias": [-0.4238058626651764], "a1_3.weight": [[0.05636344105005264, -0.3056105673313141, -0.30692315101623535, -0.47544166445732117, 0.06465648114681244, -0.1225363165140152, 0.18013082444667816, 0.022520780563354492, -0.15144066512584686, 0.26860979199409485, -0.13280928134918213, -0.05813255533576012, -0.29099610447883606, -0.5682286024093628, 0.3264501690864563, 0.07033675163984299, 0.39374783635139465, 0.13881979882717133, 0.6277973651885986, 0.38426676392555237, 0.19502432644367218, -0.13535061478614807, 0.5602853894233704, -0.4255830645561218, 0.29295530915260315, -0.33057329058647156, 0.32522672414779663, -0.11295206844806671, -0.4777854382991791, -0.2856409251689911, -0.0903739407658577, 0.2819823920726776, 0.06573224067687988, 0.04872618988156319, 0.35868948698043823, 0.47336822748184204, -0.26199251413345337, -0.3544761538505554, 0.01261578593403101, 0.021604210138320923, -0.8667935132980347, -0.7348104119300842, 0.02778870239853859, 0.3330231308937073, 1.1407639980316162, 0.5182821154594421, -0.4408378005027771, -0.05375508591532707, 0.08963780105113983, 0.45215702056884766, -0.7058938145637512, -0.12891940772533417, -0.38599371910095215, 0.4577198028564453, 0.6308830976486206, 0.3771178424358368, -0.02352573722600937, 0.34438174962997437, 0.32796746492385864, 0.1286049634218216, 0.48287779092788696, -0.5827014446258545, 0.4468400478363037, 0.22004102170467377, 0.8510271310806274, -0.09317775070667267, -0.005538006313145161, -0.29910001158714294, -0.1804981231689453, 0.43572676181793213, -0.45589479804039, -0.2537326514720917, 0.0026308088563382626, 0.8032999038696289, 0.7082584500312805, 0.5408924221992493, 0.10402125120162964, -0.5972267985343933, -0.5249107480049133, 0.18983694911003113, 0.2661227285861969, -0.09763263911008835, 0.21594248712062836, 0.3868562877178192, 0.15618813037872314, 0.33045876026153564, -0.040874507278203964, 0.00770336389541626, 0.032793231308460236, 0.05124089866876602, 0.1414780169725418, 0.03789424151182175, -0.07866378873586655, -0.06784965097904205, 0.09868175536394119, -0.013173773884773254, 0.022322222590446472, 0.09668754786252975, 0.08678356558084488, 0.09764885157346725]], "a1_3.bias": [-0.1943187266588211], "a2_0.weight": [[0.08860959112644196, 0.015123918652534485, -0.08803629875183105, -0.1256718933582306, 0.19604672491550446, 0.06493695080280304, 0.15950341522693634, 0.16163529455661774, -0.18821899592876434, 0.12223924696445465, 0.3039173483848572, 0.02051105536520481, -0.3584331274032593, 0.11956416815519333, 0.6810281276702881, 0.2870066165924072, 0.21198157966136932, 0.8021770119667053, 0.09159240126609802, -0.8367354869842529, 0.8977529406547546, -0.17014291882514954, 0.35906481742858887, -0.26294612884521484, -0.29180365800857544]], "a2_0.bias": [0.2195778638124466], "a2_1.weight": [[0.02402317523956299, 0.13285644352436066, 0.08146463334560394, 0.01583278179168701, 0.12039946019649506, -0.311461865901947, 0.35340288281440735, -0.006755593698471785, -0.13427941501140594, -0.28434041142463684, 0.4912281632423401, -0.08807514607906342, -0.377293199300766, 0.14250992238521576, -0.334045946598053, -0.1759360432624817, 0.06702376157045364, 0.3312031924724579, 0.43664059042930603, -0.4839131832122803, -0.2800355553627014, 0.7464831471443176, 0.11089614778757095, 0.4153762757778168, 0.22781924903392792]], "a2_1.bias": [0.46013110876083374], "a2_2.weight": [[-0.5118765830993652, -0.012157208286225796, 0.1166645884513855, 0.27378425002098083, -0.2132776528596878, -0.35409554839134216, -0.2541198134422302, -0.21753641963005066, 0.10276886075735092, 0.3509502708911896, -0.13289374113082886, -0.08978105336427689, -0.02221546322107315, 0.45563003420829773, -0.10255265980958939, -0.2392171323299408, -0.5419721603393555, -0.1291201412677765, -0.12564332783222198, -0.19755057990550995, -0.15995536744594574, -0.6488203406333923, -0.666314959526062, 0.1865117847919464, 0.2566269636154175]], "a2_2.bias": [-0.325710654258728], "a2_3.weight": [[0.18606993556022644, 0.004440625663846731, -0.9654674530029297, -0.09988193958997726, 0.09624113142490387, 0.10601136833429337, -0.34939318895339966, -0.6832656264305115, -0.1958894580602646, -0.13396885991096497, -0.5053303241729736, 0.07806206494569778, 0.15214675664901733, -0.15630343556404114, 0.13506488502025604, 0.8283645510673523, 0.11665891855955124, 0.13572843372821808, -0.09138834476470947, -0.06348896026611328, -0.03890053927898407, 0.4821819067001343, -0.7967953085899353, -0.08819973468780518, -0.04014162719249725]], "a2_3.bias": [-0.3567105531692505], "a2_4.weight": [[-0.46338218450546265, 0.5074740648269653, 0.09510935842990875, -0.4245382845401764, -0.15101011097431183, -0.030632978305220604, -0.07450424879789352, 0.7874597311019897, -0.19741111993789673, 0.05717896297574043, -0.19572509825229645, 0.12250491231679916, 0.06678466498851776, -0.04284713789820671, -0.23037296533584595, -0.25825321674346924, 0.0758737325668335, -0.45862025022506714, 0.4408279061317444, -0.05239451304078102, 0.03341200202703476, -0.03537999093532562, 0.12615817785263062, 0.5285401940345764, 0.2660227417945862]], "a2_4.bias": [-0.09608466923236847], "a2_5.weight": [[-0.5075418949127197, 0.298539936542511, 0.07874998450279236, -0.03475631773471832, -0.35002678632736206, 0.506726861000061, 0.5019676685333252, -0.16780434548854828, 0.27901196479797363, 0.30617251992225647, 0.5781532526016235, -0.8012341260910034, -0.4739132225513458, -0.11405504494905472, -0.24970583617687225, 0.4896867871284485, -0.1289692372083664, -0.40520867705345154, 0.26438164710998535, 0.4498790204524994, -0.44327303767204285, -0.37942948937416077, -0.6220096945762634, 0.3717438578605652, -0.07514643669128418]], "a2_5.bias": [-0.111991286277771], "a2_6.weight": [[0.4255344867706299, 0.22257673740386963, 0.02877821773290634, -0.9126821160316467, -0.8483685851097107, 0.45420536398887634, -0.4232131540775299, 0.694561243057251, 0.27936628460884094, -0.2823183834552765, 0.744744598865509, -0.14074793457984924, 0.3343716561794281, -0.7278220653533936, -0.7595877051353455, 0.4770902395248413, 0.33599990606307983, 1.1170274019241333, -0.5581778287887573, -0.19021354615688324, 0.6985705494880676, 0.4129595160484314, -0.84554123878479, 0.023488909006118774, 0.046611685305833817]], "a2_6.bias": [-0.7675567865371704], "a2_7.weight": [[-0.1361204981803894, 0.0341106653213501, 0.24399907886981964, -0.09703492373228073, -0.08244230598211288, -0.06787079572677612, -0.00046411846415139735, -0.017879502847790718, 0.12017348408699036, -0.1436328887939453, 0.06395357847213745, -0.026521356776356697, 0.11374851316213608, 0.03973165899515152, -0.0897817611694336, -0.23101410269737244, 0.11397847533226013, -0.1624416708946228, 0.19527718424797058, 0.19158314168453217, -0.012028206139802933, -0.15170860290527344, -0.12116619199514389, -0.07779594510793686, -0.045398980379104614]], "a2_7.bias": [-0.05629626661539078], "a2_8.weight": [[-0.38542044162750244, -0.2555781602859497, 0.19063334167003632, 0.9228826761245728, 1.2526404857635498, 0.16085316240787506, -0.5139473676681519, -0.23500686883926392, -0.42059627175331116, 0.4738876521587372, 0.027983754873275757, 0.4668337404727936, 1.3849198818206787, 1.4022433757781982, 0.5712176561355591, 0.06452368199825287, -0.6560326814651489, 0.8278927803039551, -0.35611486434936523, 0.5967122316360474, 0.08418475091457367, -0.20584280788898468, -0.3416644334793091, 0.5776340365409851, -0.12692168354988098]], "a2_8.bias": [0.1414021998643875], "a2_9.weight": [[0.6572257876396179, 0.17500799894332886, -0.19670796394348145, 0.2268226146697998, 0.4393444359302521, 0.17791414260864258, -0.1480935662984848, 0.1813845932483673, -0.05973917618393898, -0.24543865025043488, 0.5297211408615112, 0.24162112176418304, -0.18797501921653748, 0.1026913970708847, -0.13748128712177277, 0.5184730291366577, 0.36835241317749023, -0.27400046586990356, -0.13068491220474243, 0.1610054224729538, -0.24354037642478943, -0.03493575379252434, -0.17913047969341278, 0.4546155035495758, 0.34208551049232483]], "a2_9.bias": [-0.4225463271141052], "a2_10.weight": [[-0.3707175552845001, 0.13141360878944397, 0.3543953001499176, -0.28400200605392456, 0.2989366948604584, 0.17335234582424164, 0.42805421352386475, 0.35378435254096985, 0.26765063405036926, 0.3414827883243561, 0.014062875881791115, 0.27205100655555725, -0.9230911135673523, 0.521173357963562, 0.6865147352218628, -0.1309676468372345, -0.8785723447799683, 0.2049676924943924, 0.4282403588294983, 0.7465558648109436, -0.21910205483436584, 0.32162341475486755, 0.5880508422851562, 0.10868967324495316, -0.2746492326259613]], "a2_10.bias": [-0.3719710409641266], "a2_11.weight": [[0.8632926344871521, 0.53801029920578, 0.16071560978889465, 0.11962728202342987, 0.9947240948677063, 0.45160266757011414, -0.6994794011116028, 0.37569326162338257, -1.3619264364242554, 0.0890057310461998, -0.05559435486793518, 0.13801166415214539, 0.47600921988487244, 1.1359689235687256, 0.12898285686969757, 0.19551534950733185, -0.14480580389499664, -0.9636309146881104, -0.14340782165527344, -0.2900203764438629, -0.4379120171070099, -0.413522869348526, -0.827559769153595, -0.03597066178917885, -0.7274342179298401]], "a2_11.bias": [0.5351254343986511], "a2_12.weight": [[-0.1822500079870224, 0.4580003619194031, 0.14105354249477386, 0.04902263730764389, -0.38388440012931824, 0.042082786560058594, -0.0395304411649704, 0.023206597194075584, 0.030065307393670082, -0.18607693910598755, -0.018660694360733032, -0.1965918093919754, 0.35263192653656006, 0.22030693292617798, 0.33769816160202026, 0.06788955628871918, -0.010471224784851074, -0.026080545037984848, -0.15646569430828094, 0.27773499488830566, -0.12120411545038223, -0.008484572172164917, 0.6779664158821106, 0.42650020122528076, 0.17168985307216644]], "a2_12.bias": [-0.4341523349285126], "a2_13.weight": [[0.14385421574115753, -0.39505451917648315, 0.17103920876979828, -0.11434578895568848, -0.6353572607040405, -0.1715451031923294, 0.32489028573036194, -0.1695941984653473, 0.7944630980491638, 0.21947607398033142, 0.3176911473274231, -0.2948628067970276, 0.0310362596064806, -0.1348259299993515, -0.5386250615119934, 0.5630199313163757, 0.6537309288978577, -0.25650376081466675, -0.11712804436683655, -0.6906039118766785, 1.0455020666122437, 0.2406749576330185, 0.42259666323661804, -0.7552512288093567, 0.04249492660164833]], "a2_13.bias": [-0.39274486899375916], "a2_14.weight": [[0.2887958586215973, -0.2896791100502014, 0.0703735500574112, 0.30501604080200195, 0.5736258625984192, 0.3344220221042633, -0.9644578695297241, -0.11928292363882065, -0.09072210639715195, 0.5974311232566833, -0.8080556392669678, -0.7002062201499939, 0.015461433678865433, 0.2877642810344696, 0.11042629927396774, 0.06621244549751282, 0.449161171913147, 0.09445825964212418, -0.09983231872320175, 0.06460074335336685, -0.01163192093372345, -0.024710029363632202, 0.017285972833633423, -3.3974647521972656e-05, 0.03973591327667236]], "a2_14.bias": [0.5043570399284363], "a2_15.weight": [[-0.049519456923007965, 0.11692796647548676, 0.4803009629249573, 0.4331846833229065, -0.3045949637889862, -0.5979118347167969, -0.38528600335121155, -0.2503172755241394, -0.058418720960617065, 0.2103824019432068, 0.17290522158145905, 0.301765501499176, -0.5980568528175354, -0.7256422638893127, 0.17046880722045898, 0.820826530456543, -0.06926515698432922, 0.037497833371162415, 0.10089744627475739, 0.1648828238248825, 0.08963389694690704, 0.024620383977890015, 0.06726659834384918, -0.10797931998968124, -0.14124605059623718]], "a2_15.bias": [-0.22264203429222107], "a3_0.weight": [[0.003190241754055023, -0.06490989774465561, 0.111295685172081, 0.11064042150974274, -1.424551010131836e-05, -0.047916561365127563, 0.007648289203643799, 0.06509323418140411, -0.016330242156982422, -0.10300783812999725, -0.02369607798755169, -0.04162630811333656, -0.017640074715018272, 0.16534540057182312, 0.04438155144453049, 0.07110393047332764, 0.03317292034626007, 0.06862930953502655, -0.018689125776290894, -0.013536304235458374, 0.05299299955368042, -0.09917738288640976, 0.05367937684059143, -0.04398542642593384, 0.046962350606918335, -0.3032691776752472, -0.09504032135009766, -0.1512766182422638, -0.2292928546667099, -0.11467189341783524, -0.32040876150131226, -0.2211851179599762, 0.11314130574464798, 0.2629099190235138, 0.30685681104660034, 0.06828100234270096, 0.025407588109374046, 0.011994300410151482, -0.10294266045093536, -0.01731770485639572, 0.17694279551506042, 0.03102649375796318, 0.1466842144727707, -0.1971801370382309, -0.22081246972084045, -0.4450428783893585, 0.1464289426803589, 0.07269454747438431, -0.08128296583890915, -0.2957600951194763, -0.11558171361684799, 0.02869861014187336, -0.09773790091276169, 0.2904052138328552, 0.15898145735263824, 0.17638005316257477, 0.03974205255508423, -0.01955234818160534, -0.06067345663905144, -0.010650411248207092, -0.2581711709499359, -0.010027369484305382, -0.11657455563545227, -0.22260142862796783, 0.10330677777528763, -0.16860553622245789, 0.031772926449775696, -0.24213077127933502, -0.217258483171463, -0.15816114842891693, 0.06459800153970718, 0.00870798621326685, 0.14566946029663086, 0.19027535617351532, 0.19996866583824158, 0.048579324036836624, 0.13541047275066376, 0.10649462789297104, 0.038659095764160156, 0.05948919057846069]], "a3_0.bias": [-0.11091181635856628], "a3_1.weight": [[-0.09911227971315384, 0.10905764997005463, 0.04708080738782883, 0.029840685427188873, 0.11806537955999374, -0.013166135177016258, -0.0340893492102623, 0.05832456052303314, -0.19303376972675323, -0.012900707311928272, -0.2577863335609436, -0.21724848449230194, -0.11358082294464111, 0.17756378650665283, 0.34159013628959656, -0.046398408710956573, 0.0983884260058403, 0.056162599474191666, 0.03147318959236145, -0.018939465284347534, 0.36719635128974915, 0.012888369150459766, 0.13373003900051117, 0.16763563454151154, 0.010329760611057281, -0.13294291496276855, -0.17700034379959106, 0.18801963329315186, 0.06483594328165054, -0.10502073168754578, -0.27555692195892334, -0.08718927949666977, -0.18763422966003418, -0.39505383372306824, -0.08102421462535858, -0.020098114386200905, 0.13821998238563538, 0.038544949144124985, -0.21383480727672577, -0.030688554048538208, -0.08112238347530365, -0.01566157117486, 0.038065243512392044, -0.23389552533626556, 0.15353235602378845, -0.1227598786354065, -0.39448660612106323, -0.12998434901237488, 0.20325520634651184, 0.31896814703941345, -0.1313648819923401, -0.18178650736808777, -0.12551885843276978, -0.25175759196281433, -0.08757045865058899, -0.002339879982173443, 0.061921291053295135, -0.0761953815817833, -0.37345755100250244, -0.07198154926300049, 0.23242607712745667, 0.3628411591053009, 0.14544598758220673, 0.2380751669406891, 0.1761738359928131, -0.06284290552139282, -0.3089736998081207, -0.0073626283556222916, 0.20517262816429138, -0.17135761678218842, -0.022356856614351273, -0.14339254796504974, -0.16094441711902618, -0.18835033476352692, 0.08432208001613617, 0.0072808340191841125, -0.010881753638386726, 0.0024735257029533386, 0.019431818276643753, -0.0431155189871788]], "a3_1.bias": [-0.10520430654287338], "a3_2.weight": [[0.01685773953795433, -0.09967490285634995, 0.009654294699430466, -0.1377093344926834, -0.10271088033914566, 0.3963196575641632, 0.0724513828754425, -0.00862509198486805, -0.0738278329372406, -0.11977732926607132, 0.015048136934638023, 0.2002389281988144, 0.05350278690457344, 0.07313737273216248, -0.03826719895005226, 0.08481985330581665, -0.15624819695949554, -0.07595447450876236, 0.15053197741508484, 0.07792869210243225, -0.00831886287778616, -0.2874114215373993, -0.11975745856761932, -0.32395392656326294, 0.02578587271273136, 0.011384150944650173, -0.20366507768630981, 0.10232333838939667, -0.020229872316122055, 0.04829107224941254, -0.11392898112535477, 0.09428402036428452, 0.02021743729710579, 0.29039496183395386, 0.2333361655473709, 0.15259163081645966, -0.012959604151546955, 0.3176915645599365, 0.0038562556728720665, -0.040192365646362305, -0.22877934575080872, -0.047779638320207596, -0.11186683923006058, 0.044021688401699066, 0.3026725947856903, 0.08497796207666397, 0.362490177154541, 0.23719559609889984, -0.3199874460697174, -0.4976910650730133, 0.04162606969475746, -0.31321007013320923, -0.13458436727523804, 0.28291186690330505, 0.4261108636856079, 0.18222907185554504, 0.22478346526622772, 0.06107523664832115, -0.047004152089357376, -0.12282133102416992, -0.028711795806884766, 0.016801750287413597, -0.16152192652225494, -0.16908930242061615, 0.204299658536911, 0.18634696304798126, 0.004994568880647421, 0.17437823116779327, 0.14915046095848083, 0.06629879027605057, -0.052317168563604355, -0.11596064269542694, -0.029483025893568993, 0.05027942359447479, 0.1837012618780136, 0.19543950259685516, -0.033862266689538956, -0.07546374946832657, -0.23789478838443756, -0.012911280617117882]], "a3_2.bias": [0.3132143020629883], "a3_3.weight": [[0.014412343502044678, -0.017710205167531967, 0.1849818378686905, 0.004911133088171482, -0.1775827258825302, -0.014976691454648972, -0.046402689069509506, -0.07868492603302002, -0.07289756089448929, 0.011333863250911236, -0.0409686453640461, -0.10182233154773712, 0.0011994978412985802, 0.0715496838092804, -0.014527425169944763, 0.10155171155929565, 0.15974636375904083, 0.17000454664230347, 0.23920968174934387, 0.0010405083885416389, 0.10931567847728729, -0.06943017244338989, -0.040512848645448685, -0.018504194915294647, 0.20167429745197296, -0.1483885496854782, 0.0329800546169281, -0.04147397726774216, 0.027279451489448547, -0.03321978822350502, -0.12750142812728882, -0.07096399366855621, 0.08229418098926544, 0.10165706276893616, -0.17088206112384796, 0.010641489177942276, 0.026856882497668266, 0.17249993979930878, 0.20714467763900757, 0.015330246649682522, -0.07712391763925552, 0.032553933560848236, 0.04032621905207634, -0.0872269943356514, -0.007579317316412926, -0.16665592789649963, -0.09927626699209213, 0.12412374466657639, 0.025992784649133682, -0.04163500666618347, 0.14517515897750854, -0.051001597195863724, 0.08316139876842499, -0.07261024415493011, 0.031993646174669266, -0.042592503130435944, -0.0855712741613388, 0.10798420757055283, -0.06258998811244965, -0.06111742556095123, -0.05597585439682007, 0.1410074532032013, -0.11497271806001663, -0.08471459150314331, 0.048310697078704834, -0.11476798355579376, -0.08277680724859238, -0.1215893030166626, -0.22197185456752777, 0.009234907105565071, 0.03125879168510437, 0.0805867463350296, 0.155288428068161, 0.06613536179065704, 0.09257900714874268, -0.021497778594493866, -0.04913856089115143, -0.0821416974067688, -0.11275199800729752, -0.20242705941200256]], "a3_3.bias": [-0.1266113966703415], "a3_4.weight": [[0.05771103501319885, 0.005831614136695862, -0.3707864284515381, 0.47741514444351196, 0.3381351828575134, 2.8893351554870605e-05, -0.32574662566185, 0.3405417501926422, 0.2986448109149933, 0.382297545671463, 0.3892723619937897, -0.024595526978373528, 0.35114535689353943, -0.18022754788398743, 0.3011036515235901, 0.11425496637821198, -0.22076091170310974, -0.2638682425022125, -0.07405251264572144, 0.42321527004241943, -0.03783128410577774, -0.03558507561683655, -0.28430092334747314, -0.3348706364631653, -0.211032897233963, -0.15918155014514923, 0.2021895796060562, 0.2898731827735901, 0.10727327316999435, 0.1515192985534668, -0.1223449632525444, 0.47872570157051086, 0.17990894615650177, -0.0911727026104927, 0.13334108889102936, -0.17818783223628998, -0.18652178347110748, -0.12375849485397339, -0.08862745761871338, 0.282164990901947, 0.10973608493804932, -0.10845581442117691, -0.45589733123779297, -0.29121458530426025, -0.11358778923749924, -0.019151730462908745, -0.18695227801799774, -0.15318401157855988, -0.022943643853068352, -0.1436946839094162, 0.2726347744464874, 0.33118975162506104, 0.0042394245974719524, -0.1341242641210556, 0.07756053656339645, 0.033282697200775146, -0.11150546371936798, 0.07818906009197235, -0.10864429920911789, 0.09215959906578064, 0.056280821561813354, 0.0700257271528244, -0.1809980571269989, -0.21857967972755432, -0.15573057532310486, -0.09228113293647766, -0.02045409567654133, 0.13917207717895508, -0.2946060597896576, 0.057320091873407364, 0.08840307593345642, 0.006017327308654785, 0.029748007655143738, 0.09861160814762115, -0.07241476327180862, -0.053079068660736084, 0.01793457567691803, 0.030988723039627075, 0.035722941160202026, -0.052008867263793945]], "a3_4.bias": [0.4649726450443268], "b1.weight": [[2.2555572986602783, 2.741180658340454, -2.4789116382598877, 1.4392000436782837]], "b1.bias": [-1.1613744497299194], "b2.weight": [[1.1982886791229248, 0.5138536095619202, -0.771443784236908, -1.140141487121582, -0.9244815707206726, -0.8305338025093079, -1.4707908630371094, 0.07131802290678024, 2.122581958770752, -1.2275025844573975, -1.3998644351959229, -1.7225472927093506, 0.8701793551445007, 1.1024454832077026, 0.7471128702163696, 1.0168534517288208]], "b2.bias": [-0.13798265159130096], "b3.weight": [[1.1719366312026978, 1.269578218460083, -1.3629467487335205, 0.680562436580658, -1.8155112266540527]], "b3.bias": [0.05336890369653702], "c.weight": [[-6.359892845153809, -6.01121711730957, 4.949544429779053]], "c.bias": [1.6520664691925049]}