{"lin1.weight": [[-0.0036697008720235668, -0.004794776962907229, 0.037493344341635065, 0.046081546634326495, -0.0007539113273673561, 0.026739345808303675, -0.04246158902662202, 0.022235488471800555, 0.0056089246166368175, -0.03009550837094072, 0.009372965386044008, 0.041055645752291106, 0.009527584494727962, 0.013617259408050187, 0.030166635249540212, 0.021276751497292377, -0.05170129241357927, -0.038790751261029925, 0.013442558213973058, -4.9378027371117566e-05, 0.0374363548526219, 0.009340866410854775, 0.006476376617020621, -0.030876182076167453, 0.012289000620392738, 0.0042608747713738845, 0.031492546153546734, 0.0425406395950159, -0.00188484675731344, 0.009614498314829604, -0.03117411774475006, -0.038023345218603406, 0.011816805187385857, 0.040245309436384165, 0.005108674484545014, -0.03567608821488673, -0.019795622694617904, -0.02706893161682835, 0.028042390921393923, 0.00036117410829473296, 0.013639666086011878, 0.007833412796503627, -0.03109427173956955, 0.037005688949546894, 0.0011697917541902175, -0.03818048168206111, -0.048349931877805126, -0.030336124865936225, 0.026008922569540883, 0.043840192224945625, 0.033004742082375006, -0.03452676538210903, -0.018269991542153283, 0.0324051603321212, -0.04578394446202561, 0.03231393915984277, 0.024705899862013082, -0.04408103227614185, -0.031401768329751625, 0.02376980517741254, -0.0487335622785483, 0.03728860611857216, -0.031110804569141476, 0.046665940395822565, -0.016356229811751756, -0.023734459686912263, -0.009207445224308823, 0.002702161413311636, -0.009286288193756499, 0.03193958846725877, 0.02467346375637807, 0.016584916015140557, -0.022246351496416863, 0.017094505925796, -0.004416919803566622, 0.015068931481500625, 0.024901235456957032, 0.00996803957773516, -0.03794314339404401, 0.03699162600451859, -0.011369814196565995, -0.04953277859608676, -0.04578104618581444, -0.03262811157234089, -0.009624042572601639, -0.05252247678802434, -0.022736752428303773, -0.04745026307651147, -0.0008027209711368838, 0.028910573561810735, 4.799615311684901e-05, -0.05110023544958404, -0.001940700014214145, -0.042938530465385344, 0.009657544065143572, -0.033952582646489225, -0.04245656358106693, 0.01506452540947314, 0.002272384008905913, 0.037724021808572386, 0.02041153048696947, 0.032108761336140254, 0.020986204937998774, -0.036718614426117444, 0.016862444553680238, 0.04457109418329031, 0.01233810742597906, -0.03303015979533482, -0.04419023545917769, -0.0014537966510659354, -0.002321078228115614, 0.004274845104854877, 6.397547794262529e-05, 0.03711509329867248, 0.03566507248186479, -0.01414605604628516, 0.0013308788001776934, -0.004070245667678284, 0.03224823250528622, -0.05260616542271397, -3.395647951603069e-05, -0.022230412847059764, 0.03981902447454553, 0.004454575914259669, 0.00033842830442077905, -0.029460310969342207, 0.01815216612537692, 0.02656668980329309, -0.02726754176143412, -0.048877596876949245, -0.034105010355238066, 0.0376332513722477, 0.017926029837274936, 0.04117617380763264, 0.0460817143080674, -0.0014083400813853914, -0.03079492786975706, 0.03424424303830617, -0.027553636597959123, -0.02178165690399047, 0.005938516438522712, -0.009262267537458952, -0.0019265694213830742, -0.00656829545223013, 0.016585476654822306, 0.014992115051771126, -0.0015035757426960518, 0.011348296849359259, -0.022229371622425508, 0.02131250125741025, 0.033275973023657104, -0.010996390172367603, 0.022781398113464496, 0.030062360657373374, -0.04848174753103718, -0.0516612567162175, -0.025065261888112658, -0.021848000610910034, 0.043691173177211995, 0.02294371088872806, -0.02022612656877595, -0.000893174242818795, 0.006526222876439554, 0.0037473765691840456, 0.04540189723379381, 0.00018645634865641306, -0.011441751420902563, -0.05294598270090378, -0.011166138601895654, -0.03616064044927912, 0.009675611706240806, -0.02368593965631116, 0.03876231606335025, 0.031683102214173274, 0.001298225342584846, 0.0056244954250592215, 0.03459475932503266, 0.023156717398449638, -0.02205458098864775, -0.010104636672392593, -0.0452629886860466, 0.0328505746599659, -0.04299648110089471, -0.03188386189923208, 0.0223734676423056, 0.03805543850160831, -0.008450082546471983, -0.03524865585815968, 0.04129883272049692, -0.05288002642660343, -0.052152987600955915, 0.03916664418627989, -0.031031981143001472, 0.02796272744643367, -0.027334792561670186, -0.05426089840373564, -0.04733095693030547, 0.031225621681608483, 0.037761390194122876, -0.0023783650321263826, 0.044114716318024376, 0.031859334525189825, -0.0021198226939563142, -0.008862605349415785, -0.04296045754399652, -0.021729283068630915, -0.01093951149438877, -0.025082414995126423, 0.012121148383015345, -0.023394564188047598, -0.029808694519932892, 0.02991755304475107, 0.04065523294899317, 0.041680987907061685, 0.011831256549981855, 0.039432268575649784, 0.029068330284758352, -0.017401473611669143, -0.019231127584829706, 0.003537422510821669, 0.017172675542934432, -0.02752612348035593, 0.03302841629942879, -0.044928185672580945, 0.03776459392703935, 0.012004661351947844, -0.023977551635620546, 0.01338741926210012, -0.036887642021274314, -0.002391501815511235, -0.014798400942538235, -0.04162535818077546, 0.018283063534765567, -0.0102777052719025, 0.010192916727555838, 0.002691050757037902, -0.04743459076562585, 0.026640530669647874, -0.012209113692305169, 0.011727882552270396, 0.018150713253952882, 0.04012228917834654, -0.04613703492642398, -0.000799129805187864, -0.0027105096072274192, 0.007036611889609494, -0.010293209020327085, -0.02924676055570492, 0.012279208722550212, 0.014350560476363865, 0.024908525853279278, 0.027178170141932603, 0.010684072017557078, -0.018469488258643262, -0.007045548877899258, -0.01773847267207698, -0.05270973593364974, -0.008496294729585576, 0.03933820501631219, -0.045714877541497695, 0.016139214814583063, -0.020957322830524785, 0.03530964252032074, -0.023470316100324656, 0.0007052028477637356, -0.039447516228910566, -0.023934345718959006, -0.03886782753277636, 0.03455325212727774, -0.026316393190576336, -0.00525761957316062, -0.04121030496617341, -0.03405741604162812, 0.031524706617617734, 0.0012095345817364842, -0.04826377333102471, -0.01957881078415632, 0.03693749755264919, -0.0005666184045745124, 0.012545666648188325, -0.0015311490740487937, -0.011500364218188824, 0.033861879215367915, -0.03168604899803388, -0.01899848323624003, 0.032313026449098024, -0.020062776331653764, 0.0013865829243003395, 0.03393710027795517, -0.051682230125828836, 0.005082062407083833, -0.03192139419588249, -0.038174401990472714, -0.024770336233676242, -0.027681415907298734, -0.04490293562429554, 0.029608113688200714, -0.04387446865444272, 0.004398953163205517, 0.0393950566580246, -0.019351784176252558, -0.0231645275332661, 0.008999289905221251, 0.03015613365708581, 0.03182667116990321, -0.0032899263706832574, 0.0077530704038111155, -0.03143649923989679, -0.006984361934807816, 0.001222651538882632, 0.03333543237880053, 0.027625160259533356, -0.018135223560821347, 0.041548121712151644, 0.01785477437018601, -0.034314349285924126, -0.01739715598283002, -0.04551735147595646, -0.00803336873745284, 0.006163967311079148, -0.003896768463530942, -0.010565514697717087, -0.03947525474511937, 0.01592458781749303, 0.02010606599012201, -0.008510330728137751, 0.020963804760644383, 0.03512018915534766, -0.000531058149276014, 0.014580445334619456, -0.038093950632214074, -0.0003560815789146534, -0.04156013951629727, 0.04020497575466852, 0.011200556533986722, -0.0006443884847578819, 0.011867898524223385, -0.003349874859675392, -0.013983339066010654, 0.002559187597017113, -0.01736761260012207, 0.03259246794727285, -0.03793688866811316, 0.03503983092633542, -0.05011896046289092, -0.0474912673466307, -0.01766073892488553, 0.02830713425683057, 0.03700112920710188, -0.02684026213841334, 0.015347858871586868, -0.004962841994892202, 0.036330059167037805, -0.05028061941124045, -0.010981913652087436, 0.012069446041637589, 0.01109268889537948, 0.01610046998506784, 0.048662472522302436, 0.028474291796576717, -0.005182568473185925, 0.03413721543918236, 0.00022651969978850037, -0.01960889066010138, -0.021251145765887713, 0.001997072230269324, 0.03679033738203127, 0.0059359906900524175, -0.00929344261409708, 0.04396668074539083, -0.0425187237728239, 0.04810516907323471, 0.0006958018594891065, 0.02517371811640561, -0.052134055639941744, 0.026882177225499092, -0.010827831920040913, -0.03683073446357339, -0.018801065157604352, -0.04788113384196106, 0.030072238261007134, -0.03083164248483352, 0.018696421726379815, 0.017787359638913636, 0.016121311095637345, 0.030854415133991127, 0.012191588039486808, -0.020100602901402143, -0.03731435539164641, 0.026970662164556937, -0.04619906843312693, -0.048095826063118415, -0.04285249486128295, -0.0023935688616689814, -0.05029163509533369, -0.021299192686979333, -0.03423968703353993, -0.007417755680767178, 0.03818770497195697, -0.002999349269946818], [-0.015695139830701154, -0.004480295873339841, -0.03021799592795117, -0.018372209810033544, 0.022115170889911134, -0.017967762490855098, -0.05260059244546089, 0.0009503956375937855, -0.041637793256643574, -0.02125059820312665, 0.008426108328418754, -0.035925470358997715, -0.035557497356060314, -0.027849454494035367, -0.008427488676894976, -0.008665244158862825, 0.017296630826149427, 0.00893389986642894, 0.021844349739190385, 0.004262132043639033, 0.0232025943126642, -0.029842026591094174, 0.005005032223996762, -0.061633195798328294, 0.023710852415569517, -0.02716962814298895, 0.02269916414821898, -0.06523246326028011, -0.004454476370873877, -0.03850193701258219, -0.015425772475682265, 0.035805854880919724, -0.04231327405702361, -0.004936602959492421, -0.022774828657422225, -0.026528036288085283, 0.025627538499981783, -0.004786033709933672, -0.05298680818743405, 0.020170690420082262, 0.0021730428042817944, 0.02660734573690795, -0.02962345263724326, -0.0347392596944035, -0.0011254390196236957, -0.029957871958923212, 0.018759600738930668, -0.01621453658642661, -0.04586345709688389, -0.04880683130858492, -0.050758071310794246, 0.02081259519519193, -0.034193471144653265, -0.0635306612297266, 0.016862889685974537, -0.04848963029162371, 0.009730954587370813, -0.0022723389000590443, -0.05608753493733602, 0.016327936134770012, 0.024705458378657348, -0.03026489173955151, -0.03457941866401891, 0.0013132046908073364, -0.057168595561475334, -0.03116340943212901, -0.06300058223989541, 0.029023608114285882, -0.03162056960330044, -0.04999186850390357, -0.04532755545539659, -0.007982488789900797, -0.008137456208972521, -0.04044281697222674, 0.031998630550469795, -0.06326597936215175, -0.0009019425579894598, 0.03135712811480606, 0.02530678169665852, -0.025108626178804775, 0.02130898083057367, -0.042095433971754886, -0.026970023351284306, -0.03759754083174323, 0.03380279981108978, -0.031351901668199254, 0.005495684139624909, -0.0598953702358025, 0.02112424179601952, -0.010740074400833525, 0.032577544388083655, -0.04146964482704657, -0.008166696948559597, 0.03686015674211523, -0.03128193697782243, -0.0256246999644156, 0.015136176653677539, 0.00901344040247326, -0.050132125672314405, -0.020937345985886195, 0.031171992372001276, -0.008829291033901319, -0.006567990929310566, -0.03987028456062443, -0.05430389947397545, -0.05527251221179979, -0.041630905203589086, -0.059213005085875195, -0.0555229485797164, 0.018080767171911337, -0.06370258338211668, -0.03734367720234513, -0.04628735415000035, 0.009791680553612504, 0.0050855934993689145, -0.05996048084477602, 0.002932651134143664, 0.01367449475509679, -0.011427661456918653, -0.046374332215743164, 0.0167744177799049, -0.052981413955975006, -0.02939362829386502, -0.056781131840944805, -0.014736617983367098, 0.0118559095350476, 0.03334817283898353, 0.03469138958562307, -0.01728844835604433, -0.04735325282912538, 0.015279938407141895, 0.011882446640592119, 0.021054219389522833, 0.014027232240644262, 0.006376511358039561, 0.016192095290876184, -0.03711874789486124, -0.042560573723222646, 0.0016489426562435357, -0.03069717442418809, -0.05109216277449319, -0.05611986299518814, 0.012560817362350325, -0.03508397571004657, 0.034269083229365636, -0.00178204016840131, 0.012676980288065158, -0.007255728879370617, -0.013592284232877373, -0.004570989929374479, 0.020707305459655424, -0.04989213875781765, -0.05932549393871445, -0.011733198597799336, 0.014995244279823489, -0.015564817995370593, 0.03560996794287093, -0.04490285000426798, -0.0317995474279832, -4.697604438155855e-05, 0.007902332530753354, 0.03522898252070751, -0.007835050155574407, -0.05521117528434661, 0.025269500859865353, -0.0373691581688663, -0.043881025219375216, -0.03813543921071633, -0.016056785418269538, -0.026471307566059376, -0.005187527335070142, -0.04118661216466204, 0.029161715813910173, 0.0057517848290012455, 0.03670899191506738, 0.017732836243113986, -0.03431637219317923, -0.028519684516561984, -0.06150786212046526, 0.03530662128132857, 0.029690982725650693, -0.04927340154586456, 0.0004962245742090796, 0.0072896219279345205, -0.038877550563517736, -0.04478789871589421, 0.021266864555931655, 0.007485962877152976, 0.02281738065454253, -0.0405948833374826, -0.006623407897023184, -0.007577424472562985, 0.015118019589882247, -0.01715925527562725, -0.0175275002256138, 0.03324307494583402, -0.023726483875545778, -0.028840201043966958, 0.014392869481230848, -0.050209876212333776, 0.02744494187386984, -0.0041627856505623735, -0.0582819916776365, -0.02444090327533671, 0.0025657649878756514, 0.027778165355129756, -0.02188565588142001, -0.04747677228663501, -0.013793747948775532, -0.03477327532945633, -0.035706579757049994, -0.05274672068042839, -0.014706160002573914, 0.013550734087140099, 0.03052342863178737, -0.026055723498477568, -0.06147004670886852, -0.02836750268388647, -0.018008118563636856, 0.01993873336645272, 0.004959225603150211, -0.05445635696897453, -0.0453080013929018, -0.033063080219630524, -0.0605317578379132, 0.0053676561746946495, -0.01955290890614494, 0.012918665003727424, -0.03045207827948747, 0.0015306387131028007, -0.0005833543316869053, -0.022369122194186478, -0.03745711228400622, 0.008908059387794869, -0.051038697427772436, 0.010001116364709987, 0.025954717705420575, 0.00988140602693069, 0.0018019227350561887, -0.04798639571959908, -0.04116179799516062, -0.058490961835831246, 0.015003555395482924, -0.000252103988451219, -0.012839795152186181, -0.016401326342265564, -0.0007212786026476924, -0.012036262145300076, -0.025391846964843996, 0.03351713710049443, 0.020145412468900257, 0.03266506635477195, 0.023445008254614947, -0.044100809910553276, -0.05445483333557487, -0.04723092174920549, -0.00985395448863596, -0.04742195090934798, 0.03847867989724788, 0.00988986709587226, 0.001880140104604144, -0.030940329704891547, 0.006119118020585153, -0.04961268236461259, -0.02473767479503802, -0.05642322455656652, 0.029742451331370136, 0.021837629317848842, -0.034298151795665054, 0.026888288494486302, 0.024612218070929986, -0.02714829153688617, 0.024864237690246826, 0.009414103746507968, -0.0063372189775520674, -0.008738383710909695, 0.005188567969653053, -0.04660608253382461, -0.04102442792001931, -0.050747696376686115, -0.05505644908291926, -0.048702675900082086, -0.024925701367796645, -0.05332788085230256, 0.0377934984373971, 0.02966871293996153, -0.014529709768959839, -0.039900448243411483, -0.055362340131867756, -0.017303122272532716, -0.037368398227725176, -0.0008188863917775121, 0.002268133385574583, 0.032110944335310365, 0.011539746023531165, 0.036991219915524315, -0.04298644518484016, -0.02116161963237738, 0.019049689115282178, -0.03824205330476048, 0.004255059122022668, 0.03774122888812999, -0.04078400884314864, -0.046799503313253964, 0.01709527890088514, -0.009948208982570386, 0.03436478221718037, 0.00020827846487625056, 0.032973848222395775, -0.008671352701637465, 0.009873868833340552, -0.035198774257858674, 0.028494452994351698, 0.023230010594892814, -0.019651442813668818, -0.03651824598367376, 0.025266272898286906, -0.021645892460702556, 0.009092659637760467, -0.05700975289478428, 0.019478503562982266, -0.01152504985138207, 0.0400499775616284, -0.00376973933396184, -0.04198548201768858, -0.02361006108373581, 0.021271809889965226, -0.03253472228631253, -0.03893514355212482, -0.0326077119065492, -0.048510067228178654, -0.046100843755548446, 0.01593044581431714, -0.05729845170495099, -0.01150447693267201, -0.02828402821681644, -0.02517335307676309, 0.023328658149042475, -0.02181681064021687, -0.04103243728335329, -0.0035430023515416052, -0.025479387537626474, 0.017457662108974082, 0.02678947892272187, -0.00913002532349603, -0.0534769110860495, 0.015876665664383293, 0.038606539322801586, 0.002456700142640679, -0.00713608466627387, -0.011268267471456221, -0.026590358516951604, -0.05960619454081795, 0.02119566868770786, -0.052710264963342274, -0.022495470984208985, 0.021239157722736324, -0.03621792797597188, -0.034634489613242087, -0.04370962088082186, 0.028232822147067734, -0.04557562623938095, 0.037417855068752004, -0.015135184901699147, 0.016664182725448708, -0.03306881715652395, 0.023515887507498695, -0.014990400573702073, -0.025612050722297414, 0.004048719016030123, 0.0128805962757572, 0.03740792717304941, 0.008777284022521493, -0.025123095180765324, -0.004936697936681883, 0.018936639609120457, 0.006493031932097498, 0.02190355579327442, 0.0017136290693489128, -0.040755685462221296, -0.01231108704333235, 0.02263360279268718, -0.040301237302974795, 0.024789692781371893, -0.02416551676911181, 0.01945634367823394, -0.04658712079813156, 0.02092260489759321, -0.011356337977512185, -0.05188641702111554, 0.03146211425483566, 0.030092103366517544, -0.03362726051762979, -0.037587955634509986, 0.028496352915751446, -0.041064780248669996, -0.059139028241237034, -0.02998883841489707, 0.0065238708136786125, -0.049662377734616604], [-0.04745982226372237, -0.0006766520583543257, 0.009893317601650143, -0.056699749198059576, -0.04870384197806302, 0.011096286475214897, -0.01730943111060854, 0.028758806977420698, 0.020753189790821507, 0.02748373510867846, 0.03184093150123082, -0.017932670310664974, 0.01783119130486621, 0.023661356306804257, 0.021676849467419622, -0.015890419597673247, 0.0008352583987773184, -0.011844606245443605, -0.01704357761580393, 0.03772891674601952, 0.015363269379024491, -0.021393030989439735, -0.009327200357349068, -0.006428087718464493, -0.05692425755399606, 0.025949919468869265, 0.029751177744052497, -0.05621929852902324, -0.015258907475924446, -0.05262541410787924, 0.03215739863882227, -0.03178791340985388, 0.03061808262309204, 0.03335265804500131, -0.047716226532250064, 0.019261786594449017, 0.037536270807454114, -0.04039857175054653, -0.014749626745414095, 0.0061621701965050135, 0.012203204349151049, -0.029236614797052685, 0.01860133360847696, -0.04666960623317081, -0.049559645470611945, -0.00012446179070611506, -0.019994184516983742, -0.008736246410810429, -0.00938730234154704, 0.0007074350102583175, 0.027604361878265718, -0.002599687430338027, -0.05440851312720945, -0.024760728811752935, 0.01908083434743127, 0.021381033457406166, -0.026410522055766668, 0.01794415329100481, 0.020488073937685116, -0.010178877158854953, 0.007223634879114537, -0.003160002747045625, -0.009495429814253154, -0.05838078645673104, 0.029737401634520228, -0.005780310043477105, -0.032427244037487125, -0.020582299818103795, -0.017495140570112897, 0.0036515454951854573, -0.001690249309750145, -0.05961219232956361, -0.03638486947998317, 0.04115056609414426, -0.04917322109423087, 0.03355738880871139, 0.02790197346057071, 0.021225977587452968, 0.009393204831147708, -0.018695140376619047, -0.00040654277324391944, 0.03949216743289362, 0.03157496813437608, 0.008666656792202226, -0.015559885769953331, -0.05227902173027619, 0.003541093404377869, -0.03406040012004871, -0.053346086429661176, -0.055532116566959645, 0.009840528373621288, -0.027526171998122954, -0.015132254108726572, 0.012109723776229153, -0.017943065714631588, 0.02674965920789039, -0.03146036352999223, 0.0034751513901170564, -0.035634078186077625, -0.059191878999109285, -0.05625955769668475, -0.004943702941052682, -0.04023277770091718, -0.03816908237081567, -0.04270312946821398, -0.018307002398823352, 0.002153150821951598, -0.038939021668936785, -0.028703166306805746, -0.027667580300585633, 0.030487896756521006, 0.026533063382074114, -0.027172789093407795, 0.020133450532786177, -0.020580276931669035, -0.03532594452946958, -0.05930770572539159, -0.0349192322271781, -0.0038636018043160356, 0.03956452001708662, -0.042068947206004834, -0.019743222848616397, -0.03160521025650028, 0.033390078572669485, 0.004504771314626652, -0.007453648963631235, -0.03439609345514241, -0.01842461351667122, -0.025636261449379152, 0.009804868961345262, -0.0030026704623981465, 0.011557754946994193, -0.02973242487466361, 0.03060104128620733, -0.05885688597454796, -0.05610660101280506, -0.05277564387392324, 0.010029053216992108, -0.041376423176407745, -0.008897922100583912, 0.01721176868700374, 0.02536516067964542, -0.047768458819984046, -0.022823365527654883, -0.012508472538593317, -0.012144344962413865, -0.010817912509956026, 0.009369424444039329, -0.0355558508182599, 0.02259153676046647, -0.02868984091172559, 0.013828657447044564, -0.026896327851354866, -0.016765143823538223, -0.030846493409739915, 0.008816137806773797, 0.0030142344836462166, -0.028954334668387063, 0.02228136351444125, 0.013440361148392165, 0.0010983440056577436, 0.005814975035038387, -0.03773552187067653, 0.042217552570001635, -0.05510168904479016, 0.0034927759777621664, -0.04618239784983703, 0.03705246364509128, -0.001609755318370519, -0.04055533197004897, -0.057655941796563734, -0.030914664381387062, -0.02716606494653971, -0.00559745041370615, 0.03315855552138851, 0.03065733414144091, 0.02799153688579496, 0.015185740652731998, 0.008934289111830893, -0.027880342791749124, 0.012001998629319536, -0.05209741750360379, -0.03524950899250246, 0.008467886504420688, -0.006474880130956807, -0.04002492885856501, -0.02706083293961466, -0.05171956878436823, 0.020375165957013608, 0.034822340920112466, -0.021943206091252016, 0.014449670786336022, 0.008221097171700645, 0.02471609403406892, -0.04450825984554481, -0.0074791359994401336, -0.015144936865498608, -0.06177328166883142, 0.011036825247946306, 0.024477079395563935, 0.03522565951269446, -0.052000466837123, 0.012819956906169792, 0.01665578585578031, 0.014730670361418273, 0.01843723829413637, -0.01429127727628409, 0.034017074721525487, -0.010703019007846822, -0.042631194125025786, -0.010774206495317518, 0.015332401605367897, 0.005110049510868087, -0.02107601436946249, -0.00036897643421989043, -0.05585039792034376, 0.009265711401082066, -0.0446420201430417, -0.009007492226438785, 0.037056971231468845, -0.024075400179178245, 0.013248685645749528, -0.003953011799261628, 0.008170408091624368, -0.004634137857472328, 0.020478658250821808, 0.01646040925777783, -0.029233470689616483, -0.003180915383730832, -0.05586732562810861, -0.025285419187361227, -0.009342603492816697, -0.018582550915999516, -0.02904981012481704, -0.02376580249896428, -0.05761247885128025, 0.030569847552791955, 0.03801713499633591, 0.03185376140288575, 0.02792431589041527, -0.03934005285459008, 0.0003435424045028577, -0.007037293735704232, -0.007202026543285905, -0.03428312030546174, -0.0016971316666578265, 0.036052387092939224, 0.0029771042772756325, -0.046534989144349025, -0.03681102778579489, -0.03774652640416166, -0.05948269005475684, -0.03915129240803234, -0.019729176649100816, -0.05804521229440855, -0.057769592964769995, -0.02516342338188845, 0.02515283029299839, -0.01152355420580786, -0.02772956166265384, 0.018188280882085028, -0.036219157369931025, -0.03717432925486685, 0.019639400669297688, -0.0015218104106544412, 0.039762299412975585, -0.030226910589615245, 0.004610663179775011, 0.006162537160809818, -0.052434507854777636, -0.051612738636857836, -0.053410548827382304, 0.037715107096877865, -0.006195983496055382, -0.014734210551227547, 0.03816233564412958, -0.02965780358257825, 0.03163066122085871, -0.05907389904883279, -0.04167170089435055, -0.041635736925328265, -0.048460986557836705, 0.02765785521614799, -0.022136494608742775, -0.012631299993924752, -0.05210684248918118, -0.040078282476305814, -0.048714399459000066, -0.054593358303741055, 0.020884420620155376, 0.019742257784020712, -0.026704765953689286, -0.0053810459695661115, 0.013373372983910904, 0.021443044675509167, 0.013573952858800182, -0.05959149832805352, 0.018569782267901607, 0.03478070337696897, -0.027954695859990827, -0.03677557790835265, 0.03933394318855257, -0.05554518111105192, 0.03580404437462396, 0.032072391280315984, -0.01140420428073633, -0.030403327300436656, 0.02838636924652934, -0.008190856422552809, 0.00840539940491605, -0.031537767603784725, -0.038660727555893185, -0.03554289053975473, -0.03885616370590244, -0.016347155055096936, 0.008479315702712282, -0.03578472518931267, 0.0006768194978133419, -0.041703071542767894, -0.041377101189728455, -0.023632686675840512, 0.040116067896317484, 0.003812008702094181, 0.022886678516861103, 0.01451312184833111, 0.0025004983450273165, 0.008692258884901763, 0.023790104232273415, -0.04459989079699756, -0.032263830395194704, 0.034712929176571546, 0.01796171246128035, -0.052903421308012163, -0.018065838216721336, 0.007482345143426461, -0.04772473134466089, -0.029742442153826265, -0.018294915638046978, -0.019829485652012965, -0.011027693831576736, -0.03562506297599936, -0.055465791454919686, -0.0008410763809189136, 0.03946981200407618, -0.019040754137454204, 0.03733314564930877, 0.03831209978783173, -0.03835565604697624, -0.01365206306676138, 0.019270289584566846, 0.004303806356184997, 0.0033789190089601995, -0.04468716316443922, 0.027699088607954926, 0.03167381875239552, 0.02546529091749052, 0.016969524247007758, -0.01902224876284304, -0.043671608053424, 0.008419710128738316, -0.015971263955613855, -0.01336679895278388, 0.029658092099249245, -0.036649920116974447, -0.048371769560031745, -0.019583793440425976, 0.018659416497126567, -0.036534540440763465, -0.018934169877092403, -0.05086395526511564, -0.03114081742541045, -0.05568056933384187, 0.029389340353881452, 0.005085747615625381, 0.013188964608818495, -0.00382083382358119, 0.018495216883288288, 0.00924682888163308, 0.02376245326935513, -0.021588331167075234, 0.0399757920716529, 0.028014320784377586, 0.016931379123300304, -0.026075139735947515, -0.043292947196544966, 0.025098403836550175, 0.024583293028861978, -0.034181468271412385, 0.018527027136951677, -0.032249979755153126, 0.026026485404166952, 0.0025903346735719982, -0.013834863973394373, -0.04108128330941733, 0.0006524699771455906, 0.02559722579741984, -0.015387781988328547, -0.02832029211111741, 0.03745060777646135, 0.007627347857560814], [-0.01098694550713833, 0.03060965806829741, 0.025293203151241887, 0.019910739823822052, -0.008899076754798885, 0.035891968842435173, -0.020181864408398295, -0.01118091018637015, -0.0174568611192492, 0.04490242162441461, 0.021144665864980774, 0.03930540018674945, 0.0009693569970919808, -0.0356031655481536, -0.004953524955966394, -0.01297741189388684, -0.005821892451876243, 0.056439478017766206, -0.03171885751380486, 0.039219465180971046, -0.01271257727863837, 0.060805592767781705, 0.03828683504344665, -0.021278403605488504, 0.027797570547428884, 0.038699235860068855, -0.004748565513369777, 0.027242966093947, 0.04394623274221061, 0.007503944537869433, -0.012787499378190351, 0.029534801922992297, -0.008365179335769917, 0.031012319102510066, 0.013372995031052512, 0.04662023492664525, 0.059045370740511506, -0.0013645333693203807, 0.05147906773138404, 0.00903167956728824, -0.028733612894000855, 0.0333060399441733, -0.013884077693747218, -0.02592642596786633, 0.024510867978017024, 0.01131630698244514, -0.0003294851209702565, 0.033723037791266494, -0.023989418432315574, 0.026761727491412812, 0.04626390718770755, 0.06373264648700915, -0.02598237051757047, 0.03562692187738871, -0.011111422361999282, -0.008141809990297264, -0.02719018228104736, -0.00735993723003322, 0.0016637385847111336, -0.022952940234245253, -0.029595013631240178, 0.008152236309688376, -0.020323112519906518, -0.00760131692632862, 0.06352959581859713, 0.006050786567042425, 0.011484159258653186, -0.015514397900512563, 0.06095794224786015, 0.045863393774219455, -0.01137639294847451, 0.04561431713778845, 0.05770946674430022, 0.049379866636042, 0.0053230277955765345, 0.05270409219674869, 0.04348976172503058, 0.046929571842254984, -0.011899333382375676, 0.03554400436951599, -0.027317663581955018, 0.026534209101052756, 0.0010192717564220326, -0.01752178734851016, -0.016639228823678652, 0.06575733432803857, 0.010900588807112864, 0.02344310293270003, -0.009674677533871181, 0.04288650312319774, 0.011286881824766996, 0.039612677028795076, 0.057077534579319904, 0.0363566652632949, -0.025478577172278114, -0.02005008041258241, 0.02639196634124887, -0.028834033693990103, 0.02937633923062853, -0.020717212856458167, -0.001408980276196562, 0.01944049083026, -0.01851487897069295, -0.03398533902138884, 0.02098572448945534, 0.03665033364816447, 0.03439849252778226, 0.02859562645074361, 0.04112740987886108, 0.054671514867934666, -0.033713664777062426, 0.011551190248328048, 0.014736792153622669, -0.02274153561107103, -0.017626987710010394, 0.021081483062348805, 0.03632630415180701, 0.05960246926749076, 0.02057024283777492, 0.019908795201207915, -0.02550109096103191, -0.0307358428065291, 0.0386021622265792, -0.02794045201176232, -0.01661877511701247, 0.00938266151802075, 0.021646736272045917, -0.007586572236952942, 0.0545980446890287, 0.06113988913948913, -0.018128754498098632, 0.006909288077857251, -0.02814796000515788, 0.036382477805043015, 0.004964871864263797, -0.0299389957686126, 0.03475190333723734, -0.035300433571312975, 0.027508784143859225, -0.008265971140378121, -0.006183910584736131, 0.05655544630927807, -0.035933654684706, 0.029850723309815703, 0.05542564772806724, -0.02634120725153434, -0.025264322682895687, -0.030068032368149422, -0.003983059355452948, 0.03406858079106063, 0.028978547154286396, 0.05035946526534299, -0.02103464483438009, -0.013977488429400407, 0.04923447600412639, 0.042758029021790475, 0.05043202645732003, 0.01752827137475337, 0.013946656199798528, -0.03134077035709276, 0.04373555637367817, 0.003595315686024193, 0.02731455123345941, -0.027120634843948662, -0.030349614029140198, 0.002771090316630923, 0.023360405187879428, 0.037288773873796775, -0.013937599885616114, -0.018165623690786666, 0.03546417511553214, 0.06111482166147098, -0.020593922504882078, -0.014863635338813701, 0.007377817831651202, -0.011009168737825715, 0.03666652746639403, 0.056149609465340734, -0.031405303558666206, 0.050784010515331386, 0.02467244870089463, 0.05660621455867322, -0.013186453783690879, 0.060886189407789934, 0.01447153191353575, 0.04294059805669424, -0.012845411819397365, -0.005981630566311063, 0.0004358448797697744, 0.018901573584430807, 0.027730340222291316, -0.024514654569365836, -0.03080771669356679, 0.03414792946616488, 0.05193044996942159, 0.019872505295627476, -0.0029368411405293615, 0.055094547649477306, -0.015846986248034604, -0.017686398625736344, 0.016799835554729026, -0.01420359399571284, 0.026946125614112273, 0.042563069687569705, 0.006248999474687393, -0.007934064526549078, 0.026996867810589045, 0.051902588543586765, 0.019476477151949636, 0.05831787743981759, 0.04887702697067347, 0.036680046550278296, 0.02155445709528876, 0.013717394390907016, -0.018017703598193092, 0.05232029043553569, -0.027653328991979413, 0.007829196832257194, -0.006590756508113157, 0.024739269239654135, -0.0038485691644464487, 0.0035312572315074186, 0.032623451273479445, 0.014555245713459388, 0.06439930954243715, 0.036600783550654006, -0.027656985359640503, -0.0035482329828593704, 0.01008698166739544, 0.010736256916942282, 0.012578802258269722, 0.05333256728646737, -0.007146023142852983, -0.02496032596257346, 0.05792583159905118, 0.009511166325852666, 0.03000951193359276, 0.021003551855799735, 0.008988065722220922, -0.032225664631404694, -0.010973735637735921, 0.04300257197536432, 0.007376369165450787, -0.0007137367875203977, 0.030058419415286648, -0.019605379475169892, -0.014746193695525298, -0.0006986584997373416, 0.03023344845377733, 0.03479823850551392, -0.018778659329356184, -0.007630492483204001, 0.05098052703484556, 0.056929510164238056, 0.007267685681095543, 0.021728692649039913, -0.006024284216332367, -0.015555316510560286, 0.008205235071584042, 0.04527334503760709, -0.01731324001979102, 0.0420064852335554, 0.02429606958611064, 0.043620154328653835, 0.004029039829471962, 0.0399297401966325, 0.039864070785847874, 0.04759906239759047, -0.008326252844681647, -0.02328131154248098, 0.039696320976431866, 0.05519365527386464, 0.03413846351510354, -0.006318843844930176, 0.006611394299792739, 0.014830864105915428, 0.00018335890265013313, 0.004825573955703256, -0.004245543315436288, -0.023213792510763297, 0.058040343301523425, 0.026834853064997572, -0.03278640278438937, -0.010347150196369998, -0.024196686155665833, -0.027163060314917997, -0.0017172735236591738, 0.011078025304109616, -0.024368185462391632, 0.04060977705353331, 0.03320312880711141, 0.016423681825533904, 0.013530869114405654, -0.021501708711033914, 0.009513003812493832, 0.01735178573405965, 0.047319311714780286, -0.014797110042282189, 0.03354247294098337, -0.006292400337671703, 0.019733937527373818, -0.006962800796786609, -0.005025181861102744, 0.04202064877874926, 0.011438067133531954, 0.04436767108349537, -0.03106180757264077, 0.03596105433879646, 0.05087724708280123, 0.04061163969638833, -0.02764990172993617, -0.030671834861967263, 0.014299110585960553, 0.05349574988854138, -0.03429835656961742, 0.047064919077573084, -0.03512671584343393, -0.03710816794959678, -0.019441172415830623, -0.021918849952825305, 0.047550123250328154, -0.02888308459582414, 0.04260074725022145, 0.04636416588914746, -0.022071599909994546, -0.0063847610114738185, -0.03332662576642495, 0.025407204465520885, 0.016443954847300872, -0.012308482010826169, -0.004660187210471706, -0.010695055055912298, 0.04307410499511735, 0.031085558284252208, -0.04169711838442382, -0.027197167229700912, 0.0543085858706871, -0.024736313101874154, 0.01564781000917599, 0.05056995159219635, 0.04987605295562992, 0.058118008135394195, 0.036719452642728224, -0.0419952645437373, -0.0015835499565115103, 0.028816588282339968, -0.027247393445897553, -0.01709570171214139, 0.0115675936189378, 0.0394690931591508, 0.03272707768056385, -0.002693734769060558, 0.03232613211225061, 0.010647871575998422, 0.027428381190227474, 0.04841051255212147, -0.006539127744112993, -0.010754959611787468, 0.02513169875175923, 0.02148473082060512, 0.02832541807247169, 0.05418537562921862, -0.015877902448655258, -0.03778058658026118, 0.01715636630870615, 0.005669268835816544, 0.033364947948731113, -0.017462933374520206, -0.0020975730649306326, 0.004947651244004104, 0.001711027415514965, 0.0199638028201632, 0.055876061368116646, 0.04632222284358447, -0.00633354154415879, 0.05161104728230386, -0.007400903335262177, 0.017770698346649547, -0.010041371868370036, 0.01963451509687531, -0.03247386582464459, 0.04116556055124784, 0.02198352671096312, -0.031895101004765954, 0.03953139489749219, -0.007531181387364225, -0.003495382774471992, 0.05508090561753399, -0.015136591099045601, 0.05307840189086406, -0.01574608491630288, -0.038543149783363505, -0.03659623484221999, 0.050053358121312966, 0.03413788605970873, 0.03541940082991609, 0.029102465195390424, 0.05694736546627686, 0.05144280573630196, 0.038984835207095746], [-0.02088318387075379, 0.0008944022610414056, 0.021389706108841566, 0.04436857631291762, 0.06083960463922123, 0.022108383528739534, 0.05119204154111522, -0.023496383742673647, 0.023249978258352053, 0.050111223069808974, -0.030224431251977796, -0.013362600417596286, -0.033764339936897744, 0.0041377735771503605, -0.008463445077473635, 0.05396588523568386, 0.018613925249807296, 0.057031683667497834, 0.05832890425780993, 0.012921853967061787, -0.03524482245051683, 0.01487841741605703, 0.05582976346609655, 0.0023491709123841364, -0.0103200617598853, 0.007487435417749918, -0.000126805968981361, 0.017232671442282427, 0.043310798766206374, 0.02424757933356508, 0.051818996724495775, -0.0034892286117060804, 0.043118611024386085, 0.0407669991692451, 0.04127405960477685, 0.03052379381598514, 0.014088425825519127, -0.008861657187538674, -0.020392207379583555, 0.039278827660811685, 0.057384822565648294, 0.04169984539076397, 0.027778796905367525, 0.01292515737613306, 0.009914964491547083, -0.01453265634905057, 0.0598673709368063, -0.0325107126775594, -0.006809018493478118, -0.02164107741805195, -0.0058936364399199154, 0.007031689451580028, -0.0030651806802433528, 0.007717778487033234, 0.03516753767504439, 0.04612115402595427, 0.054303355557478665, 0.04738027606546834, 0.022140823348851948, 0.00464351526745271, -0.01962016704198996, -0.005843626751079448, -0.01752755971794024, -0.00471781281552453, -0.008556978720324421, 0.019557140830852544, 0.02725167206448538, 0.02193804836414805, -0.030469952091411137, 0.020342435741457606, -0.0144321098397927, 0.05378574138050395, -0.013917926649270848, -0.018711283760270675, 0.021640881939048662, 0.04879124467288751, -0.0029728866236089072, 0.0461805239677618, -0.01741494793278323, 0.023033458787050213, -0.03266218299900846, -0.014867277770155705, 0.04392699157485799, 0.01829941390001062, 0.013196439541216503, -0.012935394357582695, -0.020821284436447186, 0.03265204287028425, 0.01540235063701037, 0.04845183720937916, 0.028863115286103552, 0.0238753576358958, 0.03314070408856017, 0.018558999568990067, 0.006151890427090845, 0.04464531694848338, 0.036580055992299146, 0.005357640830140089, 0.014888407700548606, -0.036090616092333154, -0.03641369561830461, 0.02324029807983932, -0.015853084576675436, 0.01526772701790198, 0.0633378401952417, -0.019680248513632415, -0.028178535337348296, -0.018006786641932077, 0.0027346688469931644, 0.04762005811782865, 0.01944899191806385, 0.047710038770428655, 0.0074074729829995195, 0.022109616587793472, -0.02185506928723943, -0.005902376915556763, 0.047004364472070785, 0.019272517447502892, -0.02186912853447136, -0.017220638654292613, -0.029318200379017716, -0.027272779447768503, 0.049706913576469794, -0.026551747638320078, 0.02612480713096212, 0.05161852394935117, 0.056815635463239866, 0.040313951722420326, 0.05605286365148764, -0.024175876703301732, 0.009735519110497423, 0.030347144278009656, 0.041653614537277193, 0.012082723946186624, -0.010105008218388722, -0.024049291343944682, 0.035449430390568526, 0.0046324464883563884, -0.026893384720232467, -0.02339266795361292, -0.0003552822913345249, -0.01938030864216545, 0.029029931916139156, 0.06389095640023197, 0.011132367008131961, 0.0391089842186794, 0.033420182811110595, 0.021855482878702762, -0.03028288292454137, -0.02178897704092467, 0.06301392619177759, 0.013486417059780247, 0.06361775105078249, 0.055038522972351143, 0.042856946625753144, 0.061028961134149566, -0.021905807735053604, 0.043352842375531025, 0.007708196565482838, -0.024217966904931214, -0.009160390077853292, 0.04611236978870569, -0.004757998477586732, -0.03787561874480732, -0.021410275209537803, -0.029898036232377023, 0.06221972037617657, -0.025793174240499882, 0.005934172821113164, -0.0018092930075925303, -0.00413323096458511, 0.04801269625297704, -0.014922833024223163, -0.019751222760393344, -0.037410255479495384, 0.0466938801551214, 0.03157277782435492, -0.010302197140163415, 0.04781649265810494, 0.026399886281493902, -0.008805056059551697, -0.0017421876119479995, 0.02494398508076429, 0.038661364509264266, 0.01572962295589715, 0.0592038631882173, -0.02372865933022177, 0.04380148281378325, 0.018418837394012767, 0.03723083069485806, 0.04054821287717334, 0.054836884191368875, 0.004124819814244461, 0.0094102332771492, 0.018931217533323438, -0.017530808177212247, -0.0339317135013156, 0.018488787164754543, -0.007252170656762234, -0.02177664632702791, -0.020330198065764523, 0.03550985832931332, 0.010915839154151442, 0.0586885251616502, 0.05160171171688445, 0.02566528139024806, 0.021592507190585475, 0.00335832457899805, -0.018201138762737334, 0.03751195600324125, 0.012845660614679873, -0.02850960189669408, 0.036290645647769564, 0.013585339346142818, 0.06015839432284304, -0.010074518570836681, 0.03901846711949917, -0.016392162019953426, 0.0010709300900524446, -0.013759133358971335, -0.033917490349622825, -0.005260892161781315, 0.004846251617509287, -0.019148265892021128, 0.016909563971006167, -0.014746561591205336, -0.00811815070004555, 0.0029639450944474732, 0.016118133499015384, 0.013389682451011891, -0.0068967421032618305, -0.03568987171040274, 0.03443373371968886, -0.020709201647707266, 0.022669391753380765, 0.05881553520531474, -0.013182042118878563, 0.04168202732538128, -0.010773704339372931, 0.007051752927403246, -0.031922124278435965, 0.04635745291169961, -0.013610799744524522, 0.009707933345880382, 0.02537629758918104, 0.04167221864041957, 0.01038228632164466, 0.03306594868755962, -0.03079200530451291, 0.00766891479299834, 0.01892963243106481, 0.0543395057822855, 0.045092392762650896, -0.02621935489383795, 0.04797416930012055, 0.02490286347307329, 0.0017895905047453607, -0.037115495606836184, 0.03237007935037562, -0.019191585436783114, 0.02344783027937851, 0.022651158319192035, -0.03309947992400848, -0.03479504953007789, 0.018606167334375423, -0.018440630244554234, 0.04910154272521392, 0.02531675067999332, -0.03597143287347445, -0.014190739903740958, -0.009443889317581292, -0.018475722469219576, -0.023335177403389994, 0.040311101871547, 0.03153592724724247, 0.05180861432682262, 0.0164338853628578, -0.007640264416336759, 0.03742890064181447, 0.03826134284132412, -0.008568946221723592, -0.03136414284754057, 0.041091609791686676, 0.03854352613278127, -0.03675912316100521, -0.0017551831704121033, 0.04223521804094301, 0.029526673312593458, 0.028011227078669404, 0.009077030282946711, 0.04431533445953668, -0.02964187222565108, -0.001498632085064068, 0.007561373564259922, -0.0002308867631651313, -0.032109405810887406, -0.007497955075556596, 0.025945108425436233, 0.060497082811466235, 0.0014623193300892432, 0.02092618313667635, 0.03537401933962872, 0.027457512954494438, 0.003149032402270534, -0.020640179472292394, 0.022858893544133473, 0.0352536105080278, 0.061500076250895035, 0.017537683296430993, 0.04839925845242118, 0.007547964389369781, -0.010202485084920802, 0.0125297094241236, -0.01597411926984222, 0.03332516181657799, 0.04572238031180562, 0.0502322279239, 0.03948543969239396, 0.05794552344913429, 0.041973516385514296, 0.02818303932116918, -0.00030287319336558044, 0.023799719323245597, 0.030679149583493492, 0.02309726554730308, 0.04094080630858669, 0.039077509230510954, 0.05171966184146387, -0.012466505129548356, -0.0014403957938825787, 0.03281481941035982, 0.011342292693084628, 0.024443909561681472, 0.013506951771280477, 0.0426700487994668, -0.01620606702879305, -0.0009183041696276478, -0.040165584505083056, 0.03092102896064582, 0.04409569505299289, -0.025593811601456073, 0.00968575201857808, 0.0025991255283457386, 0.008374458208482597, -0.011978914925621493, -0.01543706651521598, 0.04685522619646701, 0.010299766471123668, -0.036312103232658134, 0.05303927142946593, 0.03618513052356749, -0.0061000836627407495, 0.046339307011309346, -0.04159814116841211, 0.04783882575755554, 0.042257033314496824, -0.0053370143005165025, 0.04788233715156156, -0.008877226119501456, 0.009432180817756878, 0.02192909833289863, 0.05602864179732942, 0.04437488321107033, 0.039585601570265326, -0.0035838409907123603, -0.012344368695030151, -0.025686297525987577, 0.0067223795140652605, 0.007454448885209592, 0.05270189050676659, 0.04553120587152913, 0.04610497507389897, 0.043559905169116946, 0.057253256467029445, 0.04070382195409885, 0.04951560872535229, 0.03759931403656756, 0.04557342458101278, 0.023706534907098294, -0.03180759769686342, 0.032096192284688144, 0.003768040374606589, 0.039463322650325976, 0.004163523248760803, 0.016503289382050604, -0.03920768197538464, -0.03705042968676207, 0.033242613116408644, 0.013158137017049248, 0.011708290352849982, 0.00023489018223955295, 0.018105760245118355, 0.02136551964026871, 0.019470458876431767, 0.05388056489438169, 0.04134552928848062, -0.035770118199760774, -0.008292584640284375, 0.023438077452914766, -0.01952644806729278], [0.032637752536728876, 0.017870372109536046, -0.04971549665254426, -0.059846669492509184, -0.04077417036617459, -0.03955623513171256, -0.039756693005648144, -0.03547408065530987, -0.05048386758882161, -0.03121369338233611, 0.03492412337726287, -0.059763725901946695, -0.024270128510423504, -0.028441449676388005, -0.04944394533467052, 0.010618855196030941, -0.05983807896497512, -0.00988277145521507, 0.00783800701277876, -0.015517719141225014, 0.02996622393227627, -0.02702392456809962, 0.0037346726172161316, 0.02967346267266147, -0.06069288036516675, -0.027292715448765877, -0.05970904237624241, -0.0026883765327014933, 0.009239429541412887, 0.03399108344205824, -0.0453459919097056, -0.017332684304209128, 0.007821120271456218, -0.021348545375184203, 0.02365787136487208, -0.003066243887476068, -0.05269421269090438, -0.05460012336095314, -0.055371381394231735, -0.03059067955440926, -0.024438358891356846, 0.036679360966394965, -0.0077523631616782575, -0.01298113638688346, 0.008531488420443665, -0.002547133312441312, -0.03304360441152922, -0.033187482574713385, -0.06276500231205225, -0.04440494632542375, 0.0012899253631519975, -0.046776253787338504, -0.031199535410868808, -0.05698336293274584, -0.032488755933617906, 0.007530590465181507, 0.0072770090279682875, 0.03401760380041155, -0.026819922076831388, -0.013863767549775632, 0.03672240296842619, -0.009631186776546681, -0.034916672914317076, -0.038650043370384496, -0.012141120680759867, -0.008803707615527243, -0.022843005204663293, -0.039440125289183794, 0.03122513362586684, -0.0502822138920754, -0.012827480267572822, 0.025442039539434885, 0.023732185311561696, -0.028032563670717322, -0.04292819653596328, -0.057101231122430984, 0.013565240378845022, -0.03346468512348212, 0.005399894858947198, -0.053467139652457175, 0.026258880224414468, -0.04406140004589914, 0.01147981168563452, -0.04526987305177927, -0.00296728901163342, -0.025161303645616733, 0.022364173015875944, 0.017035832562637056, -0.03448160371683624, 0.026826443091630913, -0.03187356149250164, -0.02676242781765876, -0.009611383135709396, -0.055397808598027086, -0.0276708379848315, -0.001260794986171822, -0.03409847249471718, 0.008035197812099682, -0.05462358150986984, -0.017353516120333288, -0.005528028168995653, 0.016744272732453686, 0.03019271785713854, 0.03402231627990405, -0.061853617488405864, -0.050812032136696744, -0.024397701094767837, -0.01943092054823895, -0.006392822199962945, -0.013055155115057551, -0.05369441589312596, 0.02880902024274134, 0.026875054412000242, -0.016025664326441872, -0.04200614247578283, -0.052981033967513566, -0.01716092420020033, -0.028494972776310516, -0.052441798188739265, 0.026992617132419017, 0.008973566768054924, -0.0594246760506368, 0.01152801601963927, 0.005299896408178238, -0.02751348732450183, -0.058234069552064116, -0.028783652983999417, -0.043844565802361395, -0.03574803849595036, -0.0005161045040465219, -0.0274373200246625, -0.02842527819082729, -0.00569807417076802, 0.013398220713910917, 0.025998568119125976, -0.00563147715251159, 0.00921023166660682, 0.000361597239874028, -0.01722686927711098, 0.01413793391875864, 0.021187497263169264, -0.040516641035205504, 0.025984255552738002, -0.03535313537740998, 0.0014672262500847082, 0.012076402964509228, -0.033666476659848364, 0.0204872600219287, -0.01000345503556707, -0.014748572420609802, 0.03178993980366114, -0.061753261887793516, 0.025120167008614604, -0.05542398249018092, -0.0551507138133329, 0.03501700977918965, -0.0002038749692001262, 0.03339839349335778, -0.05640559647518921, -0.02481036823814682, -0.03663927321221292, -0.012008164121060767, -0.05271326381748978, -0.041588906245019146, -0.003396739299195682, 0.0007259448885749278, 0.014837018164555751, -0.0023531311202494966, -0.010605291515189722, -0.015874143743973095, -0.028634561272208064, -0.061973165772237514, -0.013047461449086641, 0.033009316722931566, 0.037279855412814034, 0.011507706667889526, -0.03706460078720261, -0.05102635925326196, -0.0049387538322727695, 0.02117979521467145, 0.001510108543514478, -0.008433756462490833, 0.034602839459276856, -0.006888890687201701, 0.004992156707375038, 0.0287197343496331, 0.002929366606253918, -0.018523031900941542, 0.023399716179713922, 0.033571381060435244, -0.04157240321973736, -0.05314263334591282, 0.024362590111376915, -0.05482072015070679, -0.039051644548776514, -0.018718522093670954, -0.025993736514378814, -0.039545483940589, -0.029783163269594435, -0.03541164105267549, 0.03877110774679647, 0.01935057895714148, 0.0278440303643671, -0.060259625372025206, -0.0021001543544412393, 0.010424134265401345, 0.011435272114393354, -0.010076737093492863, -0.0014177006186529566, 0.024549044605856902, -0.04267861700209731, 0.031605087162453006, -0.04233674337650434, 0.0028837522943535613, 0.0315835363685083, 0.015336506947498503, -0.05151247238507295, 0.016891097596017902, -0.03245931496436975, 0.038184620392474125, -0.002808941809097344, -0.03194734832073099, -0.01267004483822442, -0.02138788258603578, 0.028454840122145685, -0.013574584447458456, -0.006710758961071241, -0.03158070525893656, 0.009469019185492101, 0.004164664017367874, 0.03334477910936878, 0.0338195822612245, -0.03638836001510672, 0.005908696397109255, -0.02176511478996677, 0.027929194221188832, -0.04944822569608264, -0.03543467452029164, -0.004576026511905173, -0.055885881235167946, -0.004863749774517841, -0.018049823165120535, 0.02375113958536698, 0.029237851442668706, -0.04010285070350914, -0.04257794474888047, 0.026369007250433982, -0.026784075480491693, 0.02306467847590136, 0.014905100629747378, -0.010999964603675784, -0.031851179952639155, -0.06315477198047406, -0.0441210382223316, -0.013240260122119981, -0.05647847433676494, 0.033834613813792484, -0.024118490563596478, -0.05663059283705424, -0.05709127341585827, -0.040143504790337896, -0.03744251285683584, -0.039968036163870256, -0.02316212845110763, -0.05613015224201477, -0.034314155621424085, -0.03416836266505005, -0.05119303246515828, 0.02673373179684741, -0.022598097153114508, -0.013386975100797888, -0.035880580600879584, -0.04713912686116126, 0.00867925020223227, 0.002090358131042632, -0.022008625834716754, 0.019187560261069127, -0.03204031665982037, 0.02230781498544717, -0.03599294280288594, -0.003680229472175516, -0.03769666706375171, -0.004983777226353735, -0.03736173366425114, -0.022311400664429746, -0.05915920068062454, -0.038960207310324346, 0.01821540103730055, -0.024060195370721692, -0.005683239602974328, -0.0027145771851999323, 0.02091559948856016, -0.011292394304226067, -0.016294531567414373, -0.0072586695111043435, -0.05081506077220905, 0.005239099688277791, -0.0031863246546196575, -0.029703643217099184, 0.02011624345976517, 0.006692445788041236, -0.0407821313014666, -0.007649355608392523, 0.024492919402410267, 0.02410161677308969, -0.02137226243562295, 0.029416594605669123, -0.0024908064423616785, 0.007133616081844363, 0.017552878655486354, -0.02908386854163935, -0.03207576653063828, -0.025234716063666347, -0.012050751633988605, -0.032477684352760994, -0.04004278782524458, -0.02906170118412881, -0.038824979251344434, -0.058392137328836746, -0.034961622253396094, -0.054001458036668046, -0.01616552103754449, -0.04736020792118994, -0.029672939363224, -0.0456892438603516, -0.04242230210926009, 0.002176204423635048, -0.004693407141408602, -0.015397747091255977, 0.022526159838155976, -0.051527757249157306, 0.03458408634160715, -0.010706578421540311, -0.004998359396763612, -0.047660220445370806, -0.0020382791140862826, -0.034613493860979, -0.03196785229498949, -0.028627311845564513, -0.0032970093095087494, -0.006211963066621711, -0.018878985236836815, -0.013750521503769908, -0.017174135927111152, -0.058955602387240104, -0.023969480810792598, 0.029762085485940334, -0.006847756488226012, 0.013677576511256269, -0.024373929999180394, -0.014993168467392027, -0.01679106247327723, -0.025942968241560768, 0.014698690704137355, -0.04852886873583645, 0.024353865503651203, -0.003711830853885772, -0.0010898714250963616, 0.00817498933835668, -0.010474615766159578, 0.016053801357262212, -0.04781418297901753, 0.003233180805796708, 0.01155216149971939, -0.0438742973302885, -0.03513336558517404, -0.05899697919114871, 0.01177292499056127, 0.022312438069773885, -0.02524532009829276, -0.05999218304683073, 0.022679273003394094, -0.00546199785183421, -0.023187814312228848, -0.02180979776651295, -0.01385071224721393, -0.010335035654530632, -0.01857834685254262, -0.021522983941543124, 0.0007165702659950514, 0.019998835349951997, -0.05896564577736948, -0.012972559825378567, 0.02716223331799005, 0.022913701786282468, 0.03247343371934648, 0.010985838200294229, -0.02869431306392448, -0.03799377758568568, 0.01897723596237035, -0.05370895195926014, 0.03771060329410023, -0.03526147830752133, -0.00804737492747208, 0.008238256879871335, -0.052074100853616724, -0.023675223849361493, -0.03898236904696175, 0.013529874347376403, 0.0361977442726219], [0.0322793348996009, -0.012183796672402597, -0.0399863310738587, -0.042144745652915844, -0.04032345122296369, -0.02614209620760524, -0.0629837066589395, -0.03873579956262696, -0.02921527072414636, 0.023542093046365432, -0.020026519960021805, -0.043880593096237035, -0.012223248432168595, 0.02059174695280791, -0.05347100651284418, 0.0009449229077928238, -0.02553176886103475, -0.019460931475584614, -0.02909682696612756, -0.004320945645476399, -0.0320473202131022, 0.031210934687208227, -0.00057531055212787, 0.033820196921830206, -0.03568176186929884, -0.01072662144338219, -0.04717672996005801, 0.007131188565841191, 0.020589165314181045, -0.00887827675091508, -0.04512495926575978, 0.024583140325735255, -0.015849122834876973, -0.03240878886254692, -0.06156238919616773, 0.022087056124074318, -0.04958972713611033, -0.01649967959687675, -0.02406420750892262, -0.007713364966645308, -0.051258616197500814, -0.020333334851682084, -0.03964475175390914, -0.010301471743159702, -0.03826371959016902, 0.026452233942562596, -0.006137202104221492, -0.038062218656615285, -0.046862155270299334, -0.011292657881205486, -0.05953258654911894, -0.018758125667151217, -0.05444616086156714, -0.0010165415644438015, 0.03073659718696806, 0.031368356127232294, 0.009817754781978952, -0.030891450185013165, 0.005092014498621499, 0.0035572789485006904, -0.0020280993115370407, 0.02132781403549264, 0.014610274636258748, -0.026472237025266396, -0.008212965977311814, -0.046009287314138586, 0.01885534069936471, 0.01817404657288345, -0.05124992884818893, 0.004837953883569851, -0.010226901685818893, 0.02516370074014458, -0.002117612463474619, -0.061802581010671195, -0.03012647672502438, -0.06406566508031472, -0.0567694791333796, 0.019453627927993256, -0.031707149055770156, -0.024239834459536213, -0.03767223288663934, -0.02550807413834199, 0.03659649187512844, -0.017753211841825125, -0.043955400650971185, -0.06455011672988403, -0.05879665919118708, -0.02401506349983552, 0.016980454246821264, 0.02302340969685622, -0.032347556265129924, 0.0075136585399678095, -0.004485474970353083, 0.010096710113734753, 0.03389721357282857, 0.011415781378501948, 0.026843415506338994, 0.019715327710398606, -0.03374005487228487, 0.0009577009456640332, -0.004092502921380054, 0.01685308287058425, -0.032530825638487915, -0.03948881855527393, 0.03081139170602858, -0.032931231032915856, 0.008231330582635484, -0.003349058410347476, -0.0005500663730931186, 0.03150979049485591, 0.028098916564472876, -0.011807675539807697, -0.011490168117124886, -0.0037474358111848085, -0.02653643121973146, 0.014024785652697986, -0.037675600566224696, 0.01284352404741209, 0.00328696956022638, -0.059404049123788924, -0.028972370601023492, -0.02296556165309498, -0.02313349214998005, -0.05196576571946375, -0.061087478019273084, -0.006182941672888862, -0.005925794195448926, -0.006985645341999992, -0.053943783115113685, -0.028583107577159605, -0.04862875869951257, 0.029245229373333504, 0.0003812372405708698, -0.026720238911366302, -3.236746241953355e-05, -0.029247745936724565, 0.01705597334478876, -0.014723766654012873, -0.009474754387461613, -0.05739638214853162, 0.012551961419280153, -0.0513180159561425, -0.032903648964889246, 0.027667250416826154, -0.06344502425237959, 0.0008797345825123601, 0.01790473231857202, 0.012236054929804369, 0.024447726024596658, -0.047818090828996955, 0.022874934537567247, -0.03166835761772479, 0.014535439134711675, -0.011591119748921717, -0.03931327169576597, 0.009713478322813997, -0.05072250968991835, -0.04803671321832606, 0.01879205735395889, 0.03791790077388297, -0.027004584721386577, -0.04786949982056028, -0.023370597553885784, 0.018570290827063077, 0.01908916416160318, -0.028471963530949548, -0.03312999760613624, -7.94757397793485e-05, 0.0220660659801447, -0.03573592386502013, 0.011951847872908247, 0.013924113410652998, -0.003057743952639494, -0.03559914609895233, -0.02487939788380607, 0.030786679990478717, 0.012458014230603017, 0.03382008515517805, -0.005272411803126248, -0.00932055811648576, 0.013009305063531058, -0.02943382044312463, 0.006943353409747884, -0.008916537326733646, -0.0031759152657968304, -0.05196677526191135, -0.04950023820588694, 0.024560021174666918, -0.03569490469704961, -0.016859309821643853, 0.010762343112994819, -0.05415584153627033, -0.025797441665798775, -0.032046187722532135, -0.05221014848191476, -0.048802070388745324, 0.007177977749446247, -0.04122170440658942, 0.011841313843912859, 0.02028530456647342, -0.01995496829349285, -0.04727458959269615, -0.03252244372828649, -0.05989747500119614, -0.05094567319978535, -0.03070946043268432, -0.059450149592760744, -0.059156455164118237, -0.0026293707345998747, -0.025603247875487328, 0.019451485879447502, -0.024024922464886113, 0.023825129437834786, -0.01003458822113499, 0.018865108429305864, -0.029587712210165647, 0.03181385986530688, 0.029807934464824073, 4.7418093533424176e-05, 0.0022869111785150807, -0.003759770004081552, 0.015113631208956894, -0.025532240099923015, -0.054805845078097215, -0.034973897100434526, -0.05686541280144756, -0.0084647183007074, -0.004129016837228985, -0.023288769713470537, 0.01921245821957203, -0.0466984771805457, 0.0009914370596924664, -0.0011307495292528862, -0.061930526105222934, -0.04737913615044374, -0.016509188409081225, 0.008809880284038906, -0.021980758824089033, -0.03419088951769765, 0.00580724741283787, -0.054689671894828616, 0.04037798564138285, 0.012861928844629259, -0.00541270297409108, 0.03412740671660688, -0.045334514285968734, -0.05401511495957962, -0.03700120753060588, -0.04136483377737299, -0.04128692305739559, -0.042478799880890615, -0.0035673995187734623, 0.02589234330830265, -0.060487207089111227, -0.05358490726843809, -0.005181825786536731, 0.007446127411728255, 0.029860347442905402, 0.020743893399753563, 0.022098336305713912, -0.03087971178645425, -0.01912362505858293, -0.03239492332139583, 0.0004536139933192493, 0.03203369299203779, 0.008425016841546411, 0.034097202072030645, -0.04961130773483964, 0.02958855772175775, -0.003897388988106168, -0.04221600300323562, -0.04481203487646141, -0.0626523420806362, -0.05891646078489546, -0.06161872675982442, -0.013280784773224056, 0.017749529267998443, -0.04423599697022611, -0.04877037933731076, -0.0001379831049343226, -0.007196159625813771, 0.012325491706839206, -0.0071319332811876955, 0.013761242798487403, -0.02593377237413262, -0.03656897698545614, -0.018854089145478967, 0.020809462226611623, -0.04017028219129579, 0.016253573759182533, -0.037638764890896084, -0.016182282998246273, 0.020616998834306913, -0.03826500853158555, -0.026631675713304454, 0.009139791076717784, -0.03332891321275653, -0.04163784912572078, -0.00044472859362262244, 0.0171830802474935, 0.01688808755780099, 0.013801550444332261, 0.00898277941614153, -0.04247646410840011, -0.04933869470622771, -0.017535179904444375, 0.03391782188971248, 0.037668611799559874, 0.006390412277608812, 0.023453842788079382, -0.045665785733805545, 0.02298858568569046, -0.02621489583154272, 0.036202665371546934, 0.03573430324859135, -0.011609203232316404, -0.04245293518358498, -0.01603312050798634, -0.03010216733393487, -0.02245974918993602, 0.012793200033182654, -0.02449073088420947, -0.008243172467198133, -0.004566772410565211, 0.008060951679559475, -0.01869166833178868, 0.002341125817398819, -0.028587326450017794, 0.021537397008273555, -0.002918408538873096, -0.039977297249909935, -0.04122836893691048, -0.04217299824023589, 0.007536529987009175, 0.00809116564208117, 0.015426910436072484, 0.022871961766459097, -0.055617615629021004, -0.04532604297024492, -0.018264595466287243, 0.010319390274688223, -0.04510824387458237, 0.03660418089165401, -0.029419284347566712, -0.0335901603484922, 0.0010949909490028382, 0.010857360394605933, 0.01719718422296109, -0.01362333265536565, -0.041313242226546754, 0.02452954457419781, 0.002407961708048903, -0.03041214314013568, 0.008231498261529595, 0.026252618017148798, -0.054766502276677884, -0.02503768173196348, 0.026730809313844826, -0.042818699081741844, 0.01026901504689979, 0.03562362859278278, -0.026309967089256044, -0.008850553116502822, 0.03923563282719124, -0.005335088392417654, 0.017137663394096805, -0.0011342684042810792, -0.04374165837649442, -0.009002978034147752, -0.03132154797879723, 0.02400468470643833, 0.0062729515650784716, -0.0018207364880808575, -0.05317968134223142, -0.02154170912568013, -0.015374139927455257, 0.002147628177333602, -0.01620968250158724, 0.015596787396571362, 0.020379828242397514, -0.007509180870381014, -0.048604168050281615, -0.03453407068679945, 0.03264459217392441, -0.05553333838645217, -7.430185539362326e-05, -0.013860795699644409, -0.04682504762755073, -0.0456632376167457, -0.03962035481820477, -0.004636298446610045, -0.05101889003298018, -0.04073604200408251, -0.05053646866681809, -0.015738969710519746, 0.01770432475044434, 0.021570678746749245, -0.029385931851296634, 0.0334736778794098, -0.02221959462056198], [-0.0042458533696654, -0.044999524809135896, -0.02974887736401329, 0.02352150173383662, 0.044430621127836564, 0.009836721391771079, 0.01794990355536965, 0.04200413096160676, -0.03726503235364371, -0.017682848326925946, 0.03470669330573395, 0.030476935363756123, 0.004519828281879506, -0.044938798853050896, -0.011887399348216669, 0.010917938456520478, 0.02699330648868945, -0.007110640280850675, -0.02097388901660206, 0.03639979675260955, 0.03913833960366361, -0.04241768255685365, 0.025825234295612162, 5.7569134269508486e-05, 0.006553160671008539, -0.028980599542054876, 0.012095269928988572, 0.01593051496794433, 0.006146983891670059, 0.0017531370312226743, -0.03542216478376673, -0.036231465484105344, 0.014771477461044354, 0.029960880189998304, -0.0004756493610699832, 0.04285596698422082, -0.042692359400317514, -0.010945748405864474, 0.0024578894133579967, -0.01950946061010035, 0.04380771159143052, -0.027339236671104553, -0.002118839484127323, -0.025690646676071006, 0.042426042421918636, 0.001563860397568213, 0.014587243278922647, -0.03610875810346075, 0.023211945018130575, -0.028803765615704968, 0.0033129168866660804, -5.5539044093344994e-05, 0.013276347112286924, 0.013567536276575391, -0.021605683341782034, -0.014837529352258716, -0.0006881231978111224, -0.04103602828535605, -0.009874915563823259, -0.007255324933793815, -0.02211070046012241, 0.0038976493881843362, 0.019144842573362762, -0.02379995752352674, -0.033143907610749444, 0.015769837616568534, 0.05185869728698246, 0.041889399469559545, 0.009497113701516612, 0.021367726999237207, 0.004696768856916738, 0.03972167909047515, 0.02198668211593439, 0.024522014088777046, 0.050827574114953755, 0.025971539471252678, 0.00029743491255081764, -0.002591617516690454, 0.0027785849591170178, -0.002778628920539548, 0.001510790576162893, -0.03899928913267047, 0.03745733963325044, 0.017447667370718123, -0.03830981981654346, 0.04656137917769377, -0.014722951487247886, -0.006532290296538499, 0.023407973530908687, -0.041190199392253705, 0.00921447029882523, 0.01020194605495925, 0.04002147928968059, -0.01684805737245363, 0.010830812287738646, -0.002061174798740977, 0.045586653190408874, -0.015552630528301435, 0.02756110218056886, -0.014064486925251987, -0.04466802241044937, 0.03862578436678042, -0.03691500409979943, -0.021997678855174056, 0.04916000383885294, -0.009394012202983687, -0.028367088901211868, -0.018398800671727267, 0.03288327548625059, -0.026639262036360724, 0.024520371269890623, 0.05280567721280084, -0.026545731192663766, -0.0057771781994969814, -0.00977928365872311, 0.0376674571516237, 0.03277584179485317, 0.03645943489502566, -0.002166515797916309, 0.0022279677342446447, -0.02107341946462225, 0.032044612017548574, 0.002540404356719898, 0.04188241454754949, 0.014615504249230036, -0.040300525556006835, 0.00744105425953263, 0.008416093117638749, -0.008124062625017693, -0.018829122032579453, -0.013499210450304649, 0.048645686508633955, -0.014462599380592375, -0.010540140648177338, -0.0027366777542445855, 0.04545296369539439, -0.015078874164733117, 0.016593471293050107, 0.04069367062208175, 0.008580727626727765, 0.026935696719502245, -0.007666876871524114, 0.037632592156179444, -0.03698555362739738, -0.0034506186602540805, 0.04152197405206668, 0.04402729511516297, 0.03644301384575466, -0.03249661982074378, -0.002368471674239636, -0.02904046126788998, 0.05283309535313263, -0.001044071001759151, -0.025435734392639145, -0.014358239122596145, -0.002773161145337073, -0.016765298184206065, 0.05283739431229646, -0.03081371623619072, -0.035154268018926384, -0.03195145713483904, 0.012260782659770118, -0.0210538412259825, -0.021830389137521666, -0.026190820944678887, -0.025221388654242276, 0.017559390657080776, -0.03332384661982499, 0.0519851522012672, 0.014110241233263258, -0.003705120747424144, -0.017488257812075633, -0.020868418586502104, -0.045451115672291306, -0.004127755156397486, -0.003067578513114677, -0.031734783058375016, -0.012766947827532536, 0.03338135790997631, -0.004732783740438506, -0.023362167055534306, 0.047316052145842336, 0.0460637287449476, 0.03406326859213127, -0.023579582434612473, -0.03409897521189171, -0.04323522359015284, -0.031818531296207674, 0.019999874926067526, -0.023791080169887707, 0.007001230650549866, -0.007869106559265125, 0.024393690900166826, 0.04068467406039072, -0.0160778592024084, -0.014990237395705645, 0.018231950847613834, 0.0502338857877362, 0.04084668694359203, 0.013815097651264726, -0.03883397938723032, -0.028485061464214284, 0.0429300257300941, -0.03141172587293561, -0.01607330498392293, -0.021397797235249462, 0.019114244888545368, 0.024123685604256293, 0.006645687104856603, 0.04433580131865481, -0.0050659690309918385, -0.009782005876220573, 0.021558838102942738, 0.015544724778483374, 0.012629563118954957, -0.01566115938405911, 0.049517527371816715, 0.014582687201055653, 0.03649110361203716, -0.01868736544162851, 0.05409138662803376, 0.02728261067423741, 0.052812520547199884, -0.0016196070602626674, 0.02688038552471071, -0.030372360554202543, -0.03214220312995794, -0.005541817582619874, -0.007724915934017575, 0.004466700975337091, -0.04357835636796085, 0.03784726573504227, -0.0013438401308021749, 0.03537475703581418, 0.004244877166223312, -0.014228011343120595, 0.03727733729765796, -0.02484938675349238, -0.0011290049672524152, 0.011255237411685342, -0.022512772912726048, 0.011410545676364823, 0.026436396086210578, 0.048220735197880386, -0.03510504944837586, 0.05110992506487647, 0.01013212573180464, 0.0431821087040978, -0.04259023055216245, -0.028399990723517506, -0.0008286467972083317, 0.01941042408514169, 0.031057417550086373, -0.014807959865311917, -0.04403851539318912, 0.022810910032615178, -0.023590670769276303, 0.04247012002233525, 0.040651258202371664, -0.038510989263219574, 0.032883983249241557, -0.038184806577944486, 0.045449126639345076, 0.012726101223736727, 0.0185547416517689, -0.001996464202756423, -0.011853267297842368, 0.006299535883596455, 0.02434812314366555, 0.023413714163273393, 0.04356567577732675, 0.02308562599967561, -0.031158368882265076, -0.028541114026684335, -0.035442083943656416, 0.03408420843606869, -0.04393486293532027, 0.004916206602318622, 0.052357662592401794, -0.012084507240386773, -0.00332095203551777, -0.012733464930419314, -0.037286367144409055, 0.013455436693652553, 0.03834895057107028, -0.02695425028528335, -0.02885655297537374, -0.00458038209228433, -0.04367323575934991, 0.0056365902152074685, 0.028324293123036526, -0.015201234114985144, -0.011088667286012368, 0.037534657990401524, 0.00029773983675438577, -0.0034019140370847327, 0.01050903101139759, 0.028267582997734828, 0.026840897399345837, 0.018393496191525277, -0.02675949210168255, -0.020009359221115363, 0.03987502689710094, 0.02643672201459185, 0.039113924022967525, 0.012087073311297214, 0.04411047711258028, 0.04381631328640624, 0.037038665409263136, 0.035970822120185666, 0.05397711708383683, 0.05444019675309073, 0.039481662350508366, 0.023993836820539523, 0.006994056613213141, -0.020116949355081893, 0.011403914640804265, -0.001796763992443321, 0.003981465120517458, 0.03003983584335292, 0.02413406979986938, -0.00283211039659183, -0.017715262159632237, 0.0469152704703418, 0.025321224800722256, 0.037866383906886895, 0.051297463585002805, 0.029063703602325217, 0.03917254892362625, -0.02188096554893162, -0.026411697123424303, 0.044656179974114155, -0.018835913279347142, -0.04666194683218196, 0.049338612792658214, -0.002638643517645337, -0.01074730037296172, 0.03267597042803114, -0.011417087997498685, -0.03280905250634773, 0.005863910666871736, 0.016421495111807696, -0.03182679405952805, -0.025156376800567606, -0.039487521991762926, -0.019032830256418793, 0.0017249315182308758, -0.03880251934140821, -0.03617928537762521, -0.043926257501526636, -0.017967905704447316, 0.019259872026685082, 0.05171935642887633, -0.011727727866531238, 0.0473728553307521, 0.04194628828336854, 0.025332983665596467, -0.04147383935008743, -0.04027369235801865, 0.005169304660401575, -0.04456663492902134, 0.04080268751110742, -0.0009429098673656548, 0.009375976489676932, 0.0073690517817230385, 0.002199853875341089, 0.0332004280017138, 0.0213841852870834, 0.05209349480216041, 0.020976638544104434, -0.011020917314904424, 0.035891082232510044, 0.04607225591193864, -0.00584808030172815, -0.021689534101474256, 0.049662664615322066, 0.03293513515688669, -0.012263155448491608, -0.02144654271772124, -0.037451676926461, 0.03613352788677395, 0.049330752465730134, 0.00444131495905187, 0.029143406203626473, 0.014178094564603843, -0.015262855112915674, -0.02306293497535661, 0.0259932671808579, -0.010420571906033165, 0.009018489260597045, -0.01876841475279872, 0.03482673325513984, -0.031245244579986703, 0.042004551817050644, 0.008759984822693231, 0.035367284058627005, 0.03540457422879396, -0.016553314289092083, 0.04182511206402793, -0.01089661091837466], [0.020430648766495228, 0.05477391562215482, 0.052426062589272855, -0.005036689269839203, 0.023109756480004323, 0.06581689424344198, 0.01971104934886695, -0.02205775483868212, -0.02768760911660043, 0.0648412109179313, -0.0070663196207447765, -0.025968603714906037, 0.04783500738124719, -0.018507994642004026, 0.02326156205613657, 0.05043104670354983, -0.016071150010529826, -0.002552935558605228, 0.029945042052530107, -0.022534053705932627, -0.002946870807430866, 0.056882992449256285, 0.06078480563388826, 0.04656395695980577, 0.021580496880932217, 0.03615831219078203, -0.026631319812677696, -0.009616112250999608, -0.024455673909007495, -0.003652542754480854, 0.05892376236483289, 0.022236062285224612, 0.04974539584544379, 0.03403571999770897, 0.004914114782554748, 0.027625981791083127, -0.009433006800124547, -0.008313387565950289, 0.037828087878805296, -0.03397516526053402, -0.03678637737681589, -0.0244175791197143, -0.03428412967366662, 0.009928729450385355, 0.04862241826583442, 0.060245204799190016, 0.022471737204613994, 0.03296039262578521, 0.04842370011461935, 0.0077223340793710115, 0.023074861688404506, 0.004045431108879436, -0.029025750158816928, 0.013444047489439483, -0.015361592098321693, 0.009941309769630565, 0.05854075409352721, 0.006808906395219003, 0.032173160534264396, 0.007673267347203978, 0.04639070486556943, -0.03535612294272671, 0.029203193329484754, -0.001336103813809417, 0.052741184902546465, 0.05658534177937956, 0.06986250737648923, -0.024619346396521507, 0.06791953006007545, 0.06435827173416964, 0.03752969957759329, 0.0585400425611882, -0.02832561165451143, 0.01018185733369623, 0.05506230525043448, -0.03289373583507716, -0.010763297714961899, -0.033349640602263655, -0.027048824288902467, 0.0070125447386044405, 0.03229836007344237, 0.03826244925964998, -0.013745348833818819, 0.04622299231047906, 0.04628116272256643, 0.05704424911067419, -0.01727835079935244, -0.027685306876613806, 0.001860546500745102, -0.0036483944062037778, -0.033163364908245695, 0.025436574671984173, 0.013812308279898974, 0.0017656903455378267, 0.051164306769372954, 0.032804582347710734, -0.028802622035574856, 0.010621493747343726, -0.026709012622738962, 0.013698097388971774, 0.05705650528433532, 0.019990220726595932, -0.010043363026570093, -0.02110291452003598, 0.042346857560870615, 0.025188265450243566, -0.025036327448690773, 0.05366199472636376, 0.03194676348259976, 0.0665231273404721, -0.027304770347198602, 0.03782300658571053, 0.05704310543900327, -0.03168951340917662, 0.02875953732501339, 0.021176049557183774, 0.028253132552484156, 0.029068598587455807, -0.026084471432926224, -0.02514599816122022, -0.016594715361681375, -0.011613307460703218, 0.035234782903656094, 0.06007904194150976, 0.013574534171525762, 0.0352665745451372, 0.03229571886005784, -0.002721131473935302, 0.009560999537171063, -0.02107724540633661, 0.04000755778699172, -0.03076773502105139, 0.05121495581970631, -0.015687450694975336, 0.04120193801038996, 0.0007365021278156265, -0.020624814483799003, 0.0074137175160479026, -0.029389388801940006, 0.0573041365161192, 0.01338752084576613, 0.000683571675651896, -0.019364314096862255, 0.015317183994676953, 0.025341039591816463, 0.06233780092309093, -0.027017217064968974, -0.03436815359842817, -0.03330452360958384, -0.02914916158307682, 0.03286657861782714, -0.009419627411018093, 0.053303431796143635, -0.025985483012234845, -0.0048035140460112565, 0.04324200383733145, -0.014006228113770015, 0.05647859729417029, -0.0019213609032587094, 0.04929350695251217, 0.0569137037326125, 0.04944210877189348, 0.037331953693894325, 0.006238638482949534, -0.025236001179044416, 0.03833021229341578, -0.019938541514370044, -0.015932628822974002, 0.003770734253235702, 0.0011637988113985147, 0.0044444902544520815, -0.0062661207481066045, 0.04624285928953979, 0.020274642926392087, -0.022781716591256655, 0.029277151523216274, 0.022808346974730324, 0.010708307924314264, 0.016216652534262344, -0.008955379876098356, -0.011790107884007616, -0.028247147746886036, -0.019835641558372676, 0.00530977413440514, 0.019460564538091096, 0.05341658375137023, -0.028280941705040478, 0.022108262475784703, -0.021746037446189078, -0.005759702444879914, -0.016691869043852208, -0.029347257609383386, 0.018415052519583808, 0.012549238343591063, 0.028692381523017216, -0.013921853076826772, 0.03656700634127123, -0.020553633492380534, 0.013710226937910089, 0.053287282657651765, 0.05282406141741372, 0.020359205142819914, -0.022631673088053434, 0.00464124099583788, 0.00967162948300434, 0.050047572770680525, 0.028188193286420915, -0.02921954721013565, 0.06691834339046433, -0.029700392776087586, 0.03583436467217993, -0.004318660050780643, -0.0038048007331745893, -0.03351815038404377, 0.007932680728539693, 0.011403621254978187, 0.05141945564079922, -0.0011951738640356582, 0.0301329624681994, -0.017313243750804785, -0.015938198140127206, 0.02165227948294705, -0.013399037472248812, -0.017253853314344068, 0.021690597831460826, 0.008365540837504676, -0.0012513110815748447, 0.06339591749306589, 0.02263735056083622, -0.007060773134926737, -0.023037528550295623, 0.058912534333056904, 0.029956365070676477, 0.04659675068416184, -0.02349503330862138, 0.03283328943327327, -0.011128147056844031, 0.056089844629533085, -0.02193193316353786, 0.030283870248727262, 0.03711167728540126, 0.019939607059184152, 0.0010330436714132924, 0.037384193459286175, 0.013371969642906838, 0.013039757564462295, -0.01273227662583523, 0.06417083747200705, 0.06133869297465213, 0.03162117682154264, 0.036073539473466705, 0.006926603219059756, 0.03935424618385435, 0.010846232138693712, 0.06621107466494507, 0.01888116456527651, -0.011656695904972793, 0.008359844868945475, 0.050486892527762485, -0.008573086861964705, 0.05885853624167975, -0.00274568604672977, -0.015137264447886349, -0.01432551344354041, -0.029025573222255966, -0.01298903482227539, -0.02505738468488577, 0.03285378223744155, 0.06373248255562365, 0.009024105097679916, 0.06388457126736138, 0.019057331679084393, 0.002564304113761233, 0.005194256622209031, -0.03561322384277709, -0.010744688032319368, 0.06327523298049358, -0.021713677718822287, 0.0019256890026880657, 0.04630906514981042, 0.03966832167143675, -0.022173186710993893, 0.044925995221867625, -0.025013953389668307, 0.030660351791406495, 0.03412237768663949, 0.022813417089772622, 0.017016125917952103, 0.023567391633391527, 0.017325906149913126, -0.010243759420237964, 0.04065986357002394, -0.019158791677993753, -0.034997936277191555, 0.026612922609505173, 0.028913350836960953, 0.03728183738183146, 0.06129540882448175, -0.008165433004300194, -0.013771068229179414, -0.030240587831581, 0.013692510365530437, -0.0021900811252158763, 0.0465534404410114, 0.017666952733186872, -0.018926270248138314, 0.04480636871115113, 0.030999472427773705, 0.0014945956166833353, -0.02022832438954439, -0.02661810808124115, 0.031693801361469806, 0.013091470185225747, 0.002212593386258448, 0.04430801426815228, -0.031901348324840303, 0.047966718734364346, 0.03816800197868911, 0.027735356302231264, 0.032524101501847105, -0.030664650665463714, 0.05130939935509878, 0.0442885868647339, -0.023599559404038385, -0.007668071386385214, -0.004614934739779196, 0.0469079204383971, 0.02605316979295563, -0.028219563829804957, 0.049638036699948145, -0.013288319971468586, 0.03640108934518712, 0.02887374913381226, 0.033696431715480625, 0.04506659512797798, 0.0006654821294933462, -0.013676012810232195, -0.008109399064948548, 0.0543911532122913, 0.05875657131777254, 0.05182245379940308, -0.03201785678309533, 0.011939732401711083, -0.029631823265833628, 0.04381988946785772, -0.005845730609418268, -0.013927665488852705, 0.0067535033943186325, 0.004733100128549523, 0.06169857091647074, 0.030737573352139568, -0.004893645122603086, 0.04115717863218632, -0.011977408033557492, -0.029537348025594587, 0.020340526529249177, 0.04523938899454904, -0.029039630614853824, 0.04040363809220171, 0.009243103732012118, 0.048206586445475964, -0.011020882004419653, -0.009566534262031611, 0.040366791230771096, 0.042729608757162287, -0.02278109821120572, -0.0006801539030884817, 0.03626592835195228, -0.03408667439163633, -0.0236126463232066, 0.015861861472266776, 0.004525294576486515, 0.03519963850508949, -0.006420129394751229, -0.016144666767096208, -0.023551572063652465, -0.03350581595838714, -0.005818036794489108, 0.016542792376375164, 0.019335225278492442, -0.03791347884933576, 0.019766945448831823, -0.009721139395037787, 0.026049176289360557, -0.014076337163880858, 0.03108349261295772, 0.0517874248925279, -0.015240227751457308, 0.008434338546485343, 0.02786239800607293, 0.007889896684730805, 0.04489875961845568, -0.03722718725686214, 0.0013806317482166989, -0.020496753928714237, 0.01117530470203881, 0.03700666507968945, 0.03774027160567896, -0.025424536255973886, 0.03580588853399169], [0.0163058022768653, 0.011732957222023858, 0.014601421439433522, 0.029635924729827817, -0.025284012890817966, 0.01152047596944932, -0.054019134610650214, 0.02085924322527422, -0.05421703320802107, -0.055955320713272326, -0.007592631152862574, 0.007301277835545844, -0.027742225785436374, -0.006982322884983444, 0.011665584424417057, 0.01795643185912961, -0.03363925600607768, 0.03969581789007762, 0.026762647456955335, -0.05489798645027303, 0.013974531451745978, -0.012480081163984757, -0.03314793493551184, 0.03178565937328997, 0.023784380280808592, 0.0010533268727860514, 0.032087333368465684, 0.009971878361768653, -0.05135156226775281, 0.00940485845863308, -0.053507465984158335, 0.01170923643057965, -0.030994195593317127, 0.03421733145731964, -0.04631610969254955, -0.0035352069950830038, 0.0229166018794992, -0.028096435683417482, -0.008343969575505091, -0.0006858892729306325, 0.021253367790598027, -0.007168679591011459, 0.001073024709924791, 0.03132612992590951, 0.021993668638784398, -0.053931575394482574, -0.004512979787172649, -0.02530132993305155, -0.03734128562063746, 0.03771434712660195, -0.0319726505512195, 0.023250091708454917, -0.05426410969702693, 0.00858469203977619, 0.01674792718674732, 0.026843845737355175, 0.013805473123179552, -0.05437408024150206, -0.0375078805746295, -0.00807730119157848, -0.05629116678625645, -0.05563002834339049, -0.007865103069307136, 0.023787842945047658, -0.03622588526732486, -0.008214253136137406, 0.02207834818386774, 0.03824377791585945, -0.04464139429633123, 0.01533117692636742, 0.008477144763886398, -0.01869467656778762, 0.018088992576368288, -0.016846219171254694, -0.02076686556239634, 0.006618819553432531, -0.05562052513359144, -0.019666195001078603, 0.04252878195309547, -0.022646527840965606, -0.032519377858045845, -0.0019802109746972, -0.0009266617585283626, -0.043175064136896736, -0.04475045215685317, -0.020463628822233907, 0.023976001751453938, -0.056793570655088305, -0.05809522060666558, -0.014431715131911988, 0.009694544494589065, -0.004930674212828566, -0.03378189739278723, 0.02626546648491191, -0.05481480817333359, -0.008198970110606598, -0.006784406591424381, -0.029251473110623444, -0.04029511296293479, -0.05508377040256526, 0.02832315295038821, -0.05333326766602248, -0.015413477178186058, -0.04312421391936693, 0.03939151752718267, -0.04514819396033404, 0.03731350959555656, -0.05034777535455851, -0.04071301607251235, -0.0525610224626406, 0.013866104070942888, -0.028604809304780224, 0.016976127291901386, -0.03539702678220805, 0.03487568339842809, -0.012146873498668094, -0.0040061982423266595, -0.004920639181008904, -0.0014903370395160016, -0.002282596278224382, -0.04112029084444336, -0.025553267543616393, -0.05543776983143266, 0.036104090399985564, 0.012272554334491263, 0.011415291465727772, -0.021632727343122233, -3.8632991849404954e-05, 0.0008492564709911664, -0.020532962035315936, -0.020829683269301905, -0.03075295883580139, -0.001402361307408595, -0.03204862038879446, 0.03871272122037744, 0.0364919005833857, 0.008848441666888477, 0.03057005247875105, 0.001001226056421767, 0.03043417624399612, -0.042907644142161146, 0.00941779269342354, 0.030299551696429703, -0.026631450398108537, -0.02520532544143868, -0.025052100513692773, 0.02834216309527967, -0.04227549964804201, 0.00783002925332087, -0.02323751533997691, 0.030883397806009537, -0.03495044272336134, -0.013369238113505906, 0.0040507236430444935, -0.005940358242928743, 0.029286101364990325, -0.056140445271563894, 0.009213768780769183, -0.054837297730135105, -0.05078616746586231, -0.0005716529262624707, -0.01565577284213414, 0.00822716757603352, -0.04107270771260576, -0.0016548448176049069, -0.05722468727166319, -0.03213723757861823, 0.007589490996537612, -0.0060951454646673, -0.04406452935376019, -0.041617203602789754, -0.024981442946524247, -0.04092939954000699, 0.0008341971087408532, 0.028677754003839914, -0.048022393239728844, -0.003203939985267883, -0.04126087586789323, -0.007269367201223444, -0.041460052230688445, -0.0004020621668835635, 0.025483641692979182, -0.048726499155145556, -0.055652871815808067, -0.05546404057250888, -0.02700996035762065, -0.02856505112823573, -0.04165142412017593, -0.021242309480922306, 0.03320530416742948, -0.04193693783847806, 0.031606759763093684, 0.026396989712840168, -0.010101860484469535, -0.049294132840501055, 0.0367372966171452, -0.007982789652990499, -0.00943717837276093, -0.016704844416487074, 0.0028706774037151927, -0.03845572480064855, -0.03242588797524768, 0.023039340891402787, -0.0022498817273354146, 0.012363797868178376, -0.0411358662951799, -0.04881275827901158, -0.004807566869483017, -0.05847910059195448, -0.005306339480041413, 0.004798600329337806, -0.05756708618486882, -0.019061455605571292, 0.02053057950803558, 0.039086528016471285, -0.007028867608766, -0.005154315034415022, -0.01319261837824819, -0.05243491019896168, -0.020580249005992198, -0.019888298674129657, 0.020189437916517356, 0.03271049996653863, -0.03125062222802474, -0.004641659210939944, 0.024903207907151784, -0.04675292980114747, -0.05681762855990433, 0.0008636712994593925, -0.055948902035591906, 0.03184460465010938, -0.023988030954684762, -0.00792327347128164, 0.02397035797142705, -0.04786570381228746, -0.05666451167476205, 0.030952284001941926, 0.011496276488469322, 0.03357466299515338, -0.008673577669459934, -0.043562516665841614, 0.034563425844017226, -0.020468849792600885, 0.030621081483034385, -0.008195714207234087, -0.04904077957134413, -0.032886684038445045, -0.05729717398865434, -0.03575812291242607, -0.024063771701135737, 0.0024894074430655087, -0.04108962054628506, -0.048742439706452624, -0.01761799316650821, 0.012743228005772397, -0.05026827018275684, -0.05545238043384259, -0.05589978407264109, -0.030885422694181222, -0.02936990010004116, -0.048102915385354196, 0.019408458752288135, -0.02486613961190561, -0.012114751247630055, 0.008202497749173965, 0.03378844997910905, -0.006438490558357587, -0.03605685392724075, -0.014470067907791763, -0.05597325424440496, 0.003728170300052838, 0.01342945907545107, -0.051342126086342, -0.011031634282038643, -0.057679407398042094, 0.029432037741739338, 0.00021123726098360847, -0.010946154702423104, -0.00022649009246038988, 0.020217481892763112, -0.025422385064474164, -0.05040448541008087, -0.05041171246996779, -0.03309772173565827, 0.013537107875032341, 0.01595081007848907, -0.016509188456050122, 0.012125448203466848, -0.01734960649469466, 0.0022160831241686027, -0.010355965345156058, -0.02198049063979644, -0.01675850163610618, -0.02524199531749913, -0.05078795560872784, -0.014974813064182342, -0.056728836242780634, 0.039631053707956214, 0.016180010416718772, 0.0010212612221299434, 0.021697115058748048, -0.004942707808659156, 0.009777354924346058, 0.013812365852529151, 0.041426066221898185, 0.04166767736829075, 0.01659821709226347, -0.041662655866797675, 0.024811383233381393, -0.03958223397970233, -0.04018696036017979, 0.003914294645283128, -0.05437821160432661, -0.015152502882517283, 0.015955923049481055, 0.0094952982999801, -0.031412605275788465, -0.03781798862536653, -0.01067361895942024, -0.015320384033453108, -0.027110491038172826, 0.004667765380763519, -0.029096003696305946, 0.01905804120548264, 0.00815559544044189, -0.024421975100337223, -0.02705589875613392, -0.04888625823517058, 0.0022745068705815707, -0.04720157021730808, -0.028413346145098734, 0.03440055986274467, -0.005033807911163978, 0.0005177266906854625, 0.013731048374873047, -0.011476533557993905, -0.030146824267404584, 0.02108980149565884, -0.036961436344848754, 0.0027584148765494696, 0.010701228770919504, -0.0035914067010818927, -0.04334899790526971, -0.03696260235025339, 0.028404049506628896, -0.021516759028208522, 0.0135788702496923, -0.016076397234477357, 0.03036877875864771, -0.027767894894649058, 0.0075705096914086304, 0.03023383012902904, -0.043593242836808266, 0.03010543615690024, -0.022457661172320936, 0.0052706226031676295, -0.05498391769221257, 0.036290977083398096, -0.026172190976291372, -0.039667576622937316, 0.009763426995245716, -0.029812345357045977, -0.05390934653813975, -0.04215464747797018, -0.04142666987558409, 0.00456360719412233, 0.021564872843239116, 0.03543068087018672, 0.04024795433070354, 0.015567948947386357, 0.02804669169782392, -0.004867572405421329, 0.002731654959692226, 0.03480341651426568, -0.01501556865306076, -0.03389937437279402, -0.03493326537327529, -0.028300972731494522, 0.004751158810488821, -0.02436612366633312, -0.028774606158319394, -0.032856155271955796, 0.027580650442423794, -0.000995191600106137, 0.02304328597374519, 0.011425206356868353, -0.019357990573494434, 0.019022302613552783, 0.005441012706957482, 0.03608543045021306, -0.05144867308959721, -0.010804466036819036, -0.04854075617313392, 0.018625423245913722, 0.011458613845221543, 0.0020883895220433035, -0.034857258283847954, -0.04164455095340409, -0.012908878814166764, -0.048321504222193966], [0.04041343578795681, 0.01680186413277667, -0.009058226605094323, 0.031703118481721575, 0.00848398102539821, -0.017257053161569388, -0.029783192758407337, 0.037865888610418307, 0.029331084623083013, -0.03339523050092582, -0.04008851918583003, -0.010839233842168753, -0.03783883129031084, -0.009248950271023047, -0.03720596409445957, 0.034829903641925626, 0.026497232046634105, -0.0009641391806620506, 0.008840248236792303, -0.03430955833374089, -0.028609357559306964, 0.02120441034024751, 0.0029453767996896222, 0.020466551442014747, -0.01768569994084343, 0.038840588453804246, -0.013307161343682952, 0.005003336649589036, -0.016501133966600207, -0.03773115175749154, -0.008382558557658968, -0.022832730525419436, -0.029489677160963346, 0.015420170739525695, -0.02910997881550011, -0.023466054088527904, 0.018292453381804637, 0.005439026524395098, -0.02396018590407208, -0.000999400702085953, -0.008587519446422874, 0.015342368934732049, -0.017456566679916553, 0.04914632090689293, -0.016126446180194945, 0.021649863852954296, 0.022425476763035634, 0.04663195865024921, 0.03260382293060654, 0.052796386448178925, 0.01326891620034529, -0.01900740314398422, -0.03555663275685681, 0.027192348856972335, 0.016873983927339756, 0.05651538474691485, 0.009642546324463708, -0.0024430134744724222, -0.030482293784755157, -0.024283325044094063, 0.033593844825155525, 0.0328386949657692, -0.013496308340117943, 0.0354086759361854, -0.012747298674476774, 0.013373960107947872, -0.034647773630207324, 0.009516425735266862, 0.05173976749490171, 0.002720596074709612, -0.02099756869657594, 0.055269591774811236, 0.01785654414309507, 0.03254168130224858, 0.01739013963615942, -0.03857675912381035, -0.03906159077165049, 0.04264128976149548, 0.019303905081774663, -0.03372670684271881, 0.0007045031186786579, -0.011374975346376477, 0.03795665526894007, 0.03488401721303826, -0.009833545168689081, 0.04812596768120444, 0.018509466519979464, 0.05326474861252193, 0.03934005677834378, 0.03153167320196299, -0.02092477281818799, -0.037922166008640054, 0.05275992704516958, 0.024672381812291727, 0.002960050947378361, -0.005131296540041258, 0.05504502381208511, -0.024013444556098332, 0.058136340459753175, 0.01854322317065193, -0.0025036982632197714, -0.022416705038688364, 0.051705513380204224, 0.01989820624662129, -0.026593224823241838, -0.03772348135946736, 0.02489972705436235, 0.035244398126277485, -0.00920830730413898, -0.03597097442570358, 0.014599643920667349, 0.03932657864851882, -0.02039419460489373, 0.027796037720407583, -0.02509040178941599, -0.016299912462376852, 0.002143758605047805, -0.016631841440705106, -0.029973815919168475, 0.03272977494365207, -0.024693328680584204, 0.029215825943938362, 0.012241836856327277, 0.023550430573514372, -0.03721860024803085, 0.007900191737250447, 0.033324428154702976, 0.0074808483639007065, 0.019629098739377827, 0.0052537161435802, -0.026701802156481096, -0.0009158117818443531, -0.017008505512723603, 0.03657982522361846, -0.0029081856045120517, 0.01712663122417607, 0.020341597736543815, -0.0043972057916735925, 0.03964806367251089, 0.003357870728208692, -0.016964547153553965, 0.030613512007292412, -0.004119763876222682, -0.019495540968990418, 0.026206305486895762, -0.0366069858496518, 0.02656732894586025, -0.018745025399823888, 0.041747998677570564, -0.03268366656076005, 0.013990623176703517, 0.019317936418327335, 0.05202047925494413, -0.0085527671127761, 0.01863084008527117, 0.051313363243290895, 0.04781788611966695, -0.007340842614411708, -0.02531974555804915, -0.030631864222716586, -0.03735545258261229, 0.028494255806509324, -0.041176698932123695, 0.005778203454843613, 0.006490011438155294, -0.023275349085103068, 0.05297818428737688, 0.04584981522024645, -0.006990927971359984, -0.02399313796862319, 0.050823707364541774, 0.007114778060959062, -0.00910798527333013, 0.025837337838157455, -0.016070604096962576, -0.023192522804279216, 0.0411121698883602, -0.01610088880144711, -0.010162228481324965, -0.0049456080705668265, -0.0207162646556973, -0.026467673297091574, 0.05068224684767381, 0.03270819430650038, -0.025758107917260742, -0.024785877900990808, 0.0025179255824402036, 0.03901831085658916, 0.009905427047432976, 0.010482276154300703, -0.0031823708653708443, 0.02595537370043032, 0.0390023405492474, 0.05380573890828363, -0.020328454448985317, 0.004725165932569259, 0.026689965557907567, 0.01840345775086286, -0.008641948663195453, -0.029352202762162685, 0.04384059477649461, 0.04821791520635119, 0.019514529211744628, 0.019655311704465432, -0.03818145740189525, -0.03475160126923901, -0.018461035303670173, -0.03152485163310082, 0.052969973844917806, -0.007492634174793264, 0.032652266605254616, 0.0306436403564797, -0.03031513257260628, 0.005352821897909803, 0.0518822337109475, -0.027223042869557724, -0.020104013099854816, 0.006116806805005294, 0.015547398744828776, 0.02795821825222994, 0.028383841932320707, -0.01599219792605609, 0.0500630514869954, 0.014724424330241627, 0.04154308166393366, -0.005310920732642044, -0.03674046294749456, 0.02544267504068983, -0.010950063075782524, 0.04519214133910095, -0.0179688350620459, -0.011896515959035587, 0.003045220399058261, -0.03958509094005413, 0.021856453525400176, 0.03268917303566179, 0.03607307400499201, -0.025883918368584283, 0.04776952069404152, -0.011028221552475048, -0.02625609913932902, 0.04877384769526799, 0.023817906382449947, -0.027524441249599508, 0.04488240207497681, 0.056446198624409465, 0.033963211133409624, 0.030000714839850832, 0.01067211225448902, 0.019899495198429595, -0.03574429428513555, 0.005744962268403625, 0.015363702812166197, -0.03617573876324256, 0.055563919500955766, -0.026744264861171426, -0.0385491025981385, 0.02441707278522764, -0.014621061036481855, -0.03469033141187271, 0.014854336362979328, -0.03618595730424175, -0.022668309311790924, -0.006085412370229578, 0.0017559178978530758, 0.02468936724328281, 0.007960641048097702, 0.01731790065527764, 0.054261155653954736, 0.0474057237054637, -0.03323295685927308, 0.023409728220067365, 0.04552692572454001, 0.03421817745888643, -0.02277449309108752, -0.030620408938712335, -0.0173385960469573, 0.02049394723106567, -0.022626641893873888, 0.035952329906989954, -0.0320055780713373, -0.023720305223584374, 0.040426492871191065, 0.025409750838356844, 0.05132927019796716, 0.04745636899943975, 0.04527878414457479, 0.003184200529545571, -0.00045191831449439954, 0.019795220582547457, 0.031548958524361716, -0.013869588030215516, 0.02756642388713844, 0.03594974449512601, -0.0006891691922079158, 0.024711143426772754, 0.0038856407598132294, 0.05438859039961737, 0.021675503124224546, -0.028474421911526646, -0.030015684465541984, 0.02289339731874921, 0.019833976560107623, 0.0318771118149852, 0.05355915817081356, 0.043585650832543524, -0.013825751618525846, 0.057961620615317705, 0.03620042676559723, 0.029193008564028722, -0.04017078479322919, 0.04600919064487152, -0.03742061158266563, 0.05678136665684599, -0.009403470727244153, 0.04301186669682831, 0.021544018964040935, 0.007220381613668813, -0.013872090503661097, -0.030858322755523398, 0.036039952388973666, 0.011686193926362878, 0.03788190722369988, -0.025845611337714295, 0.0364022219156197, -0.024868581258337144, -0.03197194245617342, -0.01732258666477367, -0.02469072284260539, -0.002811133646838203, 0.020892430335252055, 0.04480792231180145, 0.057203605963384876, 0.04810759441731193, 0.03635563717764681, -0.023899260732620112, -0.024906055814810986, -0.007771922555245593, 0.014927879175561373, -0.0009772258760569496, 0.05615680313353858, 0.015441053728996405, 0.04734891296095466, -0.002183986696312953, 0.006954023299271197, 0.05549839529581422, -0.015576232973985433, -0.034608475689980024, -0.020610648932274954, 0.005692856624447863, 0.025471810492721205, -0.02161583098872781, 0.0240934530180111, 0.02072935381043285, 0.030275408347356043, 0.0004803007747437623, 0.03948706778414185, -0.03368067351074331, -0.023865572916186496, -0.021734688235991072, 0.0032173264365095823, -0.04216782357864905, -0.010654272330701561, -0.027620754985575018, -0.014885208417697974, 0.03586894663721666, 0.0520210193519058, 0.0015272335865742445, -0.02601178714952625, -0.030837069983648022, 0.03072141318910556, 0.022815624418953337, -0.029444694351796398, 0.04915981383778241, 0.03012703749582412, 0.03974687324849136, 0.0015979742855839775, -0.033912632428537565, -0.004703461942409413, -0.042671806924075406, 0.0038275678951237915, -0.03330192321413314, -0.00890779289789037, 0.03252634798700688, 0.03790989908730079, -0.007326334541171981, 0.026150454046247457, -8.77191291666868e-05, 0.0425729418154039, -0.024636033740079444, 0.005707951921297517, 0.008241440326452335, -0.030769966375143898, -0.02646444721713611, 0.02761064485319126, 0.009501320479562776, 0.031505525311855194, 0.053598616487814894, 0.013177224638113568, -0.03052722641948545], [-0.019167911194896654, 0.044982880417512514, -0.01618441187772775, -0.012478747333072285, -0.02695898890770996, 0.009356437320740322, 0.05243162445554527, -0.010301082316958868, -0.02311208836391726, -0.004628770910780215, -0.015316225517851834, -0.029253024541042276, -0.008339789633265326, -0.0027824583766110117, -0.006378296702743123, 0.046806544129289654, -0.0015035445640116222, -0.03514155367016274, -0.022538613464531225, 0.040407199474358425, 0.006144019370338338, -0.030169539088979097, -0.012908519174611194, 0.05866440393115727, -0.024409448651123926, 0.04015361152909213, 0.04030266784595601, 0.013344367117228079, 0.04705237977860037, 0.05799948058902607, -0.03455618761817845, -0.009765199318638451, 0.02157885214713012, 0.003558449041705474, -0.007339104951794263, 0.0030121193915062876, 0.020932873770734505, -0.03743088984469243, 0.0245377459292808, 0.023130459781099694, 0.011197120940284943, 0.05261441698535587, 0.04524311430259986, 0.02273574292161107, -0.010372724312964562, 0.023876490149982808, 0.024826819158432753, 0.03265177094568467, 0.05427394442538534, -0.019385998997494325, 0.06353176392066616, 0.019048975848297164, -0.01101612479097739, 0.02603531821395448, 0.05711267894927209, -0.011598622360277012, 0.01084681606615838, 0.010230012295305463, 0.016247648805329, -0.0052015771429957045, -0.011856434806270402, -0.025936657499173246, -0.01090686202420162, 0.015616317354413604, 0.03534245870612499, 0.043924003919149926, 0.03946612411029697, 0.022653669198139506, -0.03101028680376078, -0.02917025231295023, 0.053598828681424154, 0.05891058228099056, 0.024995103542676315, 0.05066466336985645, -0.031152902114035087, 0.03252578533278515, 0.01712587854475135, 0.021522043326585916, 0.012111770042539698, 0.025522148300271143, 0.04098089790107702, -0.033734645634155645, 0.030022921109573268, 0.02598984919106092, 0.004062474309644833, 0.06344421960816564, 0.04240003236418845, -0.023508641788323507, 0.03908977665349063, -0.02837454893059289, -0.02034373016347722, 0.053307145902668586, 0.035773556747468405, -0.006267867925888072, 0.01817037357202706, 0.02758869721646819, 0.04612280061777653, -0.01214514481294195, 0.033137477986036924, 0.007533208061931486, -0.03316694119918114, -0.014588790882047776, -0.008098845305999976, -0.029849113827712687, 0.04414034641710187, 0.039255157190624494, 0.06132863470058281, 0.04216138653751494, 0.008615082205295792, 0.04483675591416013, -0.029682313954043117, -0.01750992976901136, -0.02744631835217473, 0.05596173187589038, -0.008272743732897558, -0.0019059422770592086, -0.035792030334433435, 0.04093629871779471, 